-111
-75
-157
42
-6
74
-11
-41
-3
29
90
119
-72
-43
90
49
133
84
-64
-26
22
12
97
-53
43
-4
-15
-126
98
-260
42
76
-65
107
73
86
141
191
190
70
75
42
35
135
127
-5
114
6
166
73
-90
27
57
-156
76
2
-79
-70
27
-219
120
-82
109
133
45
79
152
28
179
-25
60
19
6
138
-78
29
-26
-73
203
207
-289
-53
42
-226
1
70
-45
51
130
-118
86
-326
36
65
-42
18
-21
-238
-55
37
-140
-5
-49
-180
-361
29
-158
-106
70
-161
-217
73
-177
-242
-68
-225
186
203
34
-32
-92
-23
-43
-37
-250
46
-105
-133
-115
-28
-152
-30
-68
-238
-20
-28
-105
-118
-74
-203
199
-21
-121
-135
-81
-141
160
129
-70
0
-37790
-17513
-31061
-15255
-7688
10824
40
-8
28
-79
-19
47
-41
-35
-13
37
-9
71
-48
-56
-4
-7
-29
57
-10
-15
35
-54
75
-13
-11
2
4
-34
78
44
63
-11
20
-93
-23
13
-14
46
31
113
17
-38
-21
48
-3
26
3
49
-41
-46
-17
-47
28
-17
-74
12
12
24
5
10
-18
-55
-20
13
-13
5
86
-56
-15
14
0
-9
25
-55
34
-27
-49
-13
122
-86
-9
-15
-18
-14
-25
-15
-4
-23
-7
-55
13
106
45
-53
-61
-26
32
44
-1
-6
-6
27
0
-18
13
52
-79
-39
-41
18
20
-20
-15
-48
-13
3
30
9
-1
-13
-24
23
2
-42
72
62
84
13
15
-15
-44
63
-26
83
-46
58
6
-52
31
3
5
-5
27
-19
-42
12
-41
-60
-36
57
-48
-12
-3
-1
22
-21
-6
-28
-45
12
12
-31
-9
-44
40
-59
29
-11
34
46
-78
-45
-10
35
107
-66
55
-1
12
69
-17
-16
-10
-1
33
-47
10
105
-13
-75
-36
52
31
-13
-26
44
26
39
-14
70
39
12
-26
-6
-52
6
36
21
-1
3
67
31
37
49
45
27
-8
42
22
6
54
0
48
-21
14
-63
-18
17
-17
102
3
16
-13
-63
70
-19
-47
-72
-14
34
-21
-2
-65
0
-6
11
5
13
-27
30
-26
-71
-45
-43
-1
-9
-4
-12
-37
-9
19
-44
17
15
57
-48
-44
-74
23
0
6
-34
36
17
-33
9
-29
-17
-16
55
9
-43
-30
7
-91
-130
-58
93
45
37
-28
48
26
43
23
58
27
-11
53
10
-44
-14
69
36
27
12
31
18
52
45
28
12
74
5
60
-39
72
-20
-8
7
40
-33
14
78
-9
49
-33
73
-43
-11
-2
36
-69
-106
-55
38
4
-5
-7
-19
-23
-53
18
23
-1
15
-72
6
-61
-88
-3
49
-10
51
-27
49
22
-9
-24
53
76
-26
51
-31
59
-41
15
-2
3
-16
-54
48
81
-79
-101
111
-38
-3
5
-10
-28
18
-34
53
51
105
-35
-78
7
64
-4
26
34
2
-41
26
-40
-47
78
-15
49
-12
57
-8
77
-10
-9
19
73
-40
9
28
69
-31
39
-15
88
-77
7
92
112
8
-47
93
-6
-84
-2
-16
-36
28
-25
-34
-14
39
1
-37
-52
3
-51
11
-5
8
-47
30
-87
-43
31
13
-71
63
-61
25
27
10
-49
24
26
-43
1
-36
54
-70
-22
13
-36
-59
-38
64
73
-76
28
102
-72
46
75
50
90
119
16
7
10
-72
-22
49
4
-10
19
38
-37
56
39
27
21
-19
-37
40
8
125
-42
-16
41
-64
19
35
-17
32
0
21
39
105
35
-28
-63
-21
-33
-69
6
70
23
28
13
-43
9
25
1
65
-6
-46
-47
-47
26
27
-25
-24
-20
-21
-22
-35
62
44
-43
-40
-30
-50
-24
26
35
-118
-13
-32
13
-15
-27
84
75
45
-16
67
35
-6
1
-23
5
-75
-46
-48
-15
-39
3
-71
-63
82
-51
-53
-2
-15
10
-22
-31
-39
-16
-11
7
41
-44
41
38
-59
33
-42
-16
74
-14
77
45
-4
73
-73
15
104
-33
-8
-83
8
68
19
89
63
-70
-46
48
74
2
68
30
22
13
5
17
4
36
-11
-67
-25
-56
-48
-63
-5
19
52
-48
-25
-31
-24
39
7
14
-76
-69
-27
-4
73
44
-51
15
-45
25
64
39
64
-22
-9
-27
-32
25
53
26
31
-26
13
-47
2
19
17
1
-82
21
117
-43
-61
-20
52
-1
6
-37
-135
6
39
4
13
-50
23
39
-28
12
-13
-6
22
-6
72
-12
63
62
50
-28
106
0
7
-24
-4
29
-34
60
89
6
8
97
48
-22
81
1
57
60
-17
77
-1
-56
-76
46
4
45
-53
-5
-31
-13
0
16
-28
-37
1
-23
-53
37
-53
-31
-2
-46
43
-12
-34
-19
-23
38
68
-5
36
-29
-56
-22
-60
40
95
21
44
-61
-75
91
13
0
70
77
-27
-63
-27
-80
-11
35
47
35
13
-48
-60
7
32
9
-15
-74
19
-53
15
-16
-41
-59
44
1
45
21
38
69
84
-12
81
129
21
58
13
2
0
1
63
49
19
-20
-9
111
47
-91
46
-9
0
78
-33
1
-11
65
-39
-16
-70
-2
-55
-17
-50
-16
-36
-42
-47
-24
20
0
-75
1
-10
-68
102
-79
-57
34
92
-16
24
97
59
3
-26
-58
-31
40
54
31
23
-84
-38
76
51
-8
68
-27
-65
-19
-89
-25
35
-3
34
71
53
101
-16
-69
31
-11
-9
-42
24
-99
77
-21
-28
-67
68
8
-19
82
61
-17
6
1
66
18
71
50
52
77
73
-19
28
1
10
-55
25
114
-41
-24
-15
-13
35
-9
-31
-60
75
-55
-55
-1
62
-36
-29
-12
-49
46
-53
-42
-89
-63
65
-52
-23
6
-48
31
186
-10
-14
0
70
-57
-9
68
107
-101
-10
-78
-19
-14
31
41
-142
-90
-22
40
-48
45
4
-37
47
24
-84
0
89
-10
13
-24
18
-11
97
-49
41
14
-17
47
7
24
-3
-20
-67
-33
69
135
30
15
37
7
-16
60
20
3
52
-39
-15
23
37
-4
-27
-2
11
37
13
35
-48
-4
41
-29
-10
36
-1
62
6
4
12
-61
-31
12
15
-31
-4
-48
6
-7
-58
-6
-4
-34
-17
-55
-30
96
-64
-12
60
9
-74
2
0
5
74
27
11
56
54
22
-7
46
-32
-28
-70
-33
-5
-59
-13
-36
17
-42
28
4
-76
20
-39
-19
-61
-49
68
0
73
-4
-83
51
-5
51
26
12
-6
-98
-52
152
77
13
59
-12
-65
69
-8
-18
121
14
-18
-2
-54
31
92
-108
7
107
-64
-39
-36
8
-14
-51
-10
30
4
31
-34
85
27
-124
-49
-25
44
-20
47
-87
-26
26
-50
16
-43
0
-15
-60
-38
101
-52
-57
22
-48
-73
41
25
16
86
62
10
-3
-67
-30
7
15
-3
-104
-128
5
-8
2
-4
-90
-2
-44
-17
-37
-110
19
73
35
-91
66
33
-11
60
11
-85
5
-22
-24
64
79
17
-86
-30
200
92
6
44
24
-2
-67
27
20
129
131
74
-53
-35
-15
132
-61
26
-17
-42
26
28
28
-33
-57
28
36
-27
-1
-43
104
46
-92
-12
-14
75
-23
-1
-34
-48
-16
-9
2
-19
30
4
17
-8
161
-25
-72
-55
3
-130
45
-42
-83
72
34
51
-9
-61
-74
56
32
52
-147
-144
89
34
-49
-8
-38
46
-39
-10
-87
41
14
30
-16
-51
129
64
-42
-51
13
-61
-58
-46
-16
103
65
-1
-71
-70
134
33
1
82
-21
110
-75
70
43
52
55
77
-60
55
-70
72
-1
2
36
0
128
-18
38
-55
-8
78
3
16
24
16
-15
113
-106
-70
-19
-18
19
-68
31
-38
6
9
-30
6
8
13
-2
-42
113
-15
-29
-32
-12
42
-47
-22
-38
33
-81
42
-44
5
-49
93
-11
-34
-77
-43
83
46
-20
-32
-43
47
-79
33
-49
98
2
-22
1
62
53
16
-29
16
56
-14
-79
-76
-35
63
79
-33
18
-49
61
64
4
97
-6
35
-47
31
2
-44
28
73
-22
102
45
2
27
-6
22
3
-30
-37
-7
-4
-13
41
-8
30
-12
75
17
-18
-146
-4
-27
-36
17
-48
26
-85
-41
-36
-43
14
-2
-25
-14
-31
143
61
71
12
-65
64
-40
36
-5
12
-124
89
-20
36
7
3
61
-56
27
7
36
-96
-21
-3
-31
25
-49
-48
-9
46
1
-32
-67
70
4
-33
-1
9
1
8
62
-64
46
25
-23
-38
20
-14
-17
43
-7
11
-22
8
62
-16
64
33
-17
-12
4
-19
-41
58
68
68
33
-59
43
-112
64
-40
-6
8
-13
5
17
45
-23
-1
-4
31
-5
-9
-22
-68
-24
16
7
2
11
-24
-6
-34
6
8
-13
48
-12
62
-41
-1
73
-15
45
-19
-9
28
2
-72
14
28
-1
11
-36
-52
5
9
-21
-81
-59
71
-76
27
-2
-63
-2
-44
-92
45
47
28
41
77
-79
45
48
-71
23
-2
22
20
16
-6
18
0
-11
35
-14
1
22
-34
68
-17
16
53
-4
-70
-31
41
-20
9
41
42
64
-143
126
-51
-63
23
67
-15
71
-15
8
24
-69
58
21
-16
-2
31
-30
19
42
-3
23
-32
-30
11
14
19
-56
-53
-36
174
33
30
-42
-54
68
11
-44
42
-52
-39
-27
-36
-62
46
-79
-34
54
-35
-32
-70
-116
27
-128
-30
6
-25
-47
4
-87
8
73
57
-17
-6
-4
16
47
-60
-13
-39
45
103
97
-46
46
-14
36
72
11
3
-66
-44
29
-10
-6
60
-90
-6
36
-24
-29
-63
62
-19
93
-5
112
-67
-73
65
21
54
-17
-1
16
36
-23
72
-20
61
18
-3
-3
38
52
16
-10
8
-6
27
-18
29
-20
-91
11
138
-11
-108
-104
-62
42
-43
-38
33
-43
40
-40
-44
-65
48
-2
-75
116
-47
-46
-110
-89
31
-136
38
59
7
-124
-87
-103
-73
65
-3
12
-65
10
-1
32
-26
81
-9
45
47
113
-33
10
-13
74
-54
20
50
-97
-45
82
-17
32
43
-66
38
59
-25
16
0
34
-81
-42
0
104
-60
-5
1
16
-20
4
0
85
-49
12
-34
-1
50
-41
-29
43
12
43
55
-5
-27
39
-5
-32
6
-10
-58
79
8
-11
-86
-53
-48
-92
-43
26
23
-2
12
10
-71
-31
-1
-16
-93
44
52
10
-60
-40
38
-36
-21
24
30
5
-78
-42
33
-21
-29
12
-34
78
-18
33
-3
99
26
-50
-52
16
-23
18
56
55
6
32
76
-14
-4
86
54
64
78
-30
69
44
-28
29
-31
-11
-25
-34
28
8
-117
-38
-80
57
10
-14
-27
-37
-44
-48
-81
-27
-12
-37
-96
49
-21
-44
-7
20
-29
24
-35
25
-58
-56
29
79
-23
-20
16
18
-86
-31
-22
88
0
11
25
27
-58
-8
-2
-18
-34
-46
-18
59
-5
46
-9
26
-13
40
29
68
-48
47
31
24
-23
29
11
-41
0
34
-69
-11
-8
-6
32
51
14
-141
-20
10
13
25
0
41
52
77
-49
53
-46
-19
-98
-18
56
0
-10
-58
55
151
-102
3
25
3
-25
-26
-6
27
56
38
80
23
5
20
1
-19
-53
-25
-7
-22
1
44
5
-22
-23
26
45
-72
2
38
-30
18
29
6
14
57
-43
52
-27
9
-50
1
30
24
15
-57
30
40
-38
-9
-9
-60
102
-23
-54
0
42
-57
-7
58
73
19
-59
-6
11
-33
81
32
-19
28
-19
77
103
62
13
-41
57
55
75
-18
3
-7
56
24
-14
53
9
-38
-74
66
24
-6
4
36
32
60
-91
42
-5
23
-16
-3
-26
3
20
-25
39
41
14
3
-46
-11
-30
12
53
-9
-38
2
-39
-29
44
20
33
-29
-12
22
-38
11
56
-90
21
52
-88
-42
-29
28
7
72
-18
-7
54
-21
-26
68
-69
9
-28
-93
-9
-63
-43
38
-67
-61
-22
43
17
0
-25
-81
26
7
62
31
88
28
40
94
21
61
101
-42
-8
27
32
-56
46
-69
62
38
17
45
51
-66
39
41
22
-51
-88
20
43
-16
-31
52
29
-4
23
65
-44
37
-52
61
-37
24
-11
-7
-23
-57
38
-3
15
45
-48
-12
4
31
-9
-45
29
-78
-11
26
16
-19
-16
-83
3
45
-64
12
26
9
-10
64
-43
-18
96
23
-22
54
-85
-39
-29
-135
52
48
-39
97
-51
66
-74
45
-23
-38
40
-51
-17
98
47
22
36
48
15
50
20
-5
61
-14
33
31
88
18
26
-53
51
12
6
35
27
-6
62
9
14
-61
-19
24
14
-45
33
71
24
-15
42
102
-37
31
17
97
-1
-3
-15
-27
-32
-23
-19
-5
-12
13
26
-52
14
-2
11
0
-4
-55
-39
-48
82
-73
-45
-18
64
-6
48
51
15
30
3
52
-25
3
55
2
-60
-3
30
58
-40
12
21
70
-19
76
57
-20
-83
-65
-59
-48
45
-16
-8
66
-4
-13
19
35
-24
-15
-24
-6
9
65
32
-10
82
4
-28
29
26
67
-16
-22
14
36
-29
-23
4
-40
-17
94
5
-49
6
74
-41
12
-22
2
-39
26
-5
-25
-15
-4
-3
-84
-58
0
-76
-13
33
7
-59
-51
-56
-51
7
-54
25
-34
9
-33
46
5
-67
24
-44
-45
-4
65
-75
47
-24
-11
-32
-11
-5
58
39
-50
67
147
-29
64
-14
17
7
-4
-15
0
-6
-32348
-6315
-33849
-12283
-3965
-40080
-30736
-12986
-9550
-4492
-23499
-13406
-37727
-15930
-16821
-11227
30
40
61
-19
-20
2
4
-9
19
-31
-19
21
-15
-32
-22
15
-5
54
-29
32
9
-23
-19
-14
-5
32
45
36
-15
30
21
33
15
0
-19
27
-4
-26
-20
-6
14
-44
33
-55
41
14
-25
-46
26
-13
10
31
-30
-21
-22
-29
-8
-6
19
-7
-29
-40
4
-5
4
-16
22
23
-12
28
18
-35
-38
-20
-3
-9
3
19
2
0
-6
6
-23
-18
-32
58
-11
-29
-1
28
-21
11
16
-24
33
-10
5
1
-32
-27
6
10
-24
-5
-27
31
7
-76
17
36
9
-20
-16
33
27
11
-28
51
-73
13
15
-14
-25
7
37
-1
-13
5
11
3
-35
30
-16
-11
-25
35
-17
26
-25
26
-4
18
15
44
-8
14
17
30
34
-45
-4
21
11
-41
-52
0
32
-7
-17
-24
-3
-31
24
-51
-51
5
-1
-19
53
24
16
16
4
-36
-6
-38
6
16
-32
-17
-25
-33
-5
-1
17
-25
17
6
-8
23
-43
-12
28
-28
5
-36
-34
6
-10
36
14
-39
-15
-31
-30
67
24
-48
11
18
-39
-29
17
17
43
37
28
-31
-23
-21
7
-1
-21
5
-32
35
-21
-12
34
-23
5
6
19
7
45
8
-18
40
-35
-20
35
-14
6
-34
-52
4
25
-5
-29
-44
40
32
18
-39
-34
-61
-8
15
-28
8
12
-34
-17
12
30
6
39
-61
-29
48
0
-11
-27
-11
23
33
9
-11
-4
-33
20
-32
-4
-35
64
41
21
-41
-17
27
34
39
-2
-7
-2
11
-3
36
-41
-14
34
43
41
-25
-57
-7
-10
33
-44
8
-26
24
-6
28
-26
15
48
-46
-35
-20
6
22
5
30
8
-51
38
-1
-8
-11
47
-19
-4
1
47
3
60
24
15
-66
74
0
-39
1
-1
42
25
-32
7
2
-18
16
-9
18
47
51
-26
-2
10
3
-13
-10
22
-5
22
25
7
9
-29
40
33
22
-6
-20
0
-21
-2
21
30
-16
-23
0
0
34
16
0
-6
17
9
-6
-22
-25
-28
59
-1
19
-7
-17
22
20
-10
-32
32
-1
10
12
20
21
-12
-33
20
-11
13
-14
-14
2
8
19
-15
-30
-2
-14
-18
-3
-20
4
3
10
-5
34
-30
1
-43
-15
18
-6
-9
33
8
43
14
28
0
13
-5
35
28
-6
-27
-2
19
-41
-7
-16
4
9
-16
-33
-3
18
15
35
-17
-15
33
-22
-7
47
-45
33
1
-52
3
-6
-27
-23
-20
0
-12
16
11
10
-17
7
-14
-25
14
-24
24
-30
-32
8
-31
34
-1
12
16
-10
-20
-75
18
41
7
2
-3
15
13
31
-12
11
-40
-2
16
-8
-6
14
20
2
5
-23
-25
26
-20
58
9
-29
17
40
19
16
9
-33
-27
50
2
-47
-46
40
56
15
29
7
-22
20
48
32
-1
-20
29
-25
58
-12
13
12
23
26
18
-6
-20
-10
8
-3
-1
-39
32
-15
-13
31
24
38
-21
39
3
20
-9
15
52
27
21
-24
-15
26
26
53
11
32
5
-2
65
-60
29
19
25
-56
-13
31
-2
43
8
-29
19
23
-30
-35
-10
-1
-6
0
10
-13
-26
14
18
20
-29
4
53
-1
0
-31
30
20
15
48
-35
-27
-11
18
3
-14
-13
19
21
44
20
-23
-50
4
45
-10
4
-12
9
-17
-14
-62
24
11
-7
12
17
39
16
-18
-21
7
-36
43
19
41
-50
-8
23
3
-43
39
-18
-16
-29
8
44
-1
-18
34
33
-15
30
-8
-4
-3
-6
-26
50
15
11
-61
-45
-19
-23
9
19
-22
-16
18
9
-19
10
47
6
-33
-25
18
41
19
9
2
0
37
24
-15
3
8
-8
18
-23
51
24
4
19
-2
41
56
11
-29
-13
-4
-12
-13
-11
-23
-31
-20
5
24
11
29
-7
-14
-32
-45
-35
-11
9
-3
-23
48
-4
-17
5
12
16
14
-44
27
5
38
-2
-3
16
-12
-13
31
0
24
26
32
8
-6
13
32
25
13
-19
35
12
-5
-37
-28
27
36
59
0
-26
-7
-2
-10
-22
9
-14
-28
45
17
-8
31
-16
-41
56
4
-41
17
-23
23
42
-29
66
-27
-9
44
0
48
18
7
-26
-17
-11
-6
13
-9
2
-26
15
-1
22
-4
-27
-34
-69
9
34
-23
-17
-12
-14
-31
-31
-11
17
-55
60
2
-32
9
37
-23
-23
9
10
-18
0
7
-43
-27
5
21
28
-4
-20
2
-13
-7
2
-50
18
36
-16
9
14
2
-20
-26
-26
15
-20
22
-9
35
-6
17
-46
-21
7
22
14
-5
-38
-16
14
-38
1
2
6
10
-12
9
-20
18
30
-24
1
-24
-33
30
-3
28
-25
-12
-8
48
-36
29
-74
33
13
-57
36
-30
-21
26
9
54
0
2
-23
0
-29
31
28
-25
-1
-11
-21
5
61
-68
29
-5
-54
2
-42
3
-19
-18
-7
-6
-19
23
-4
-3
-20
13
36
-13
-32
18
-8
5
0
-20
-65
27
-17
11
-3
-31
-28
0
-6
-20
-24
23
16
7
31
-30
-27
15
-14
39
2
13
-17
-28
38
-23
-24
12
15
-26
20
-14
10
4
20
51
-16
20
30
28
0
-6
-25
-4
28
-12
-36
13
-17
-10
17
22
-10
18
-15
-3
-12
-30
-2
-29
9
-9
-1
-3
29
-41
-33
11
-30
20
-16
33
1
-4
-49
0
-16
-18
-59
34
-7
46
18
25
27
18
-36
-37
31
-1
5
34
1
-43
3
-42
39
26
-11
20
17
-7
4
13
-16
-18
-9
-27
5
24
5
54
4
3
-20
-21
38
-4
-6
-30
-26
-11
53
20
17
45
-27
-6
-10
6
-19
12
-21
9
-9
-20
-40
15
13
60
0
0
-2
6
-33
34
2
16
2
-30
-9
40
21
39
18
-31
-33
-8
21
26
23
37
-17
-32
-10
2
31
-38
-16
-3
13
26
35
53
23
-9
8
-23
6
12
18
-13
22
38
-18
-8
-13
-17
-21
49
-3
-16
43
27
10
0
16
-24
44
-43
-19
15
20
-32
9
14
-27
-11
-14
33
32
28
-11
-6
0
-10
-1
11
72
28
-7
-32
21
-9
-15
13
13
-8
-27
-40
-19
14
-8
-10
17
22
2
-5
19
9
21
7
-12
13
82
17
-31
-10
-14
-33
-42
-15
12
21
-21
-29
8
-2
-33
38
15
30
-25
12
0
-27
-20
10
36
-47
-48
0
28
-30
-53
-45
7
17
-15
-35
-8
-34
65
-14
-24
22
-13
-17
-4
-52
-30
4
5
7
-20
18
-16
-20
1
-24
22
-29
-42
-36
-12
3
-36
19
9
3
-57
6
15
35
20
-18
-20
19
30
14
4
7
0
-18
10
6
-54
3
-3
29
14
0
15
21
-2
12
44
-6
-7
-5
-16
-22
1
32
-3
13
5
14
41
-39
-24
0
-2
25
-43
11
13
6
-31
19
19
18
9
23
-1
20
13
12
-43
-2
18
8
14
46
-2
-45
-21
-19
-21
-17
-34
8
-6
2
-23
15
-7
-32
16
-24
-20
53
-28
-31
-3
-45
-41
-13
4
17
31
0
6
-33
10
-35
21
53
24
27
-1
9
3
28
18
-17
-24
-3
-12
0
-30
-28
46
1
-26
3
-33
1
-30
-54
-22
0
8
19
-23
-4
8
-2
55
-36
-6
-15
-1
25
38
-7
-40
-17
-2
-12
-27
-2
-13
-9
-1
27
26
2
18
-34
0
-20
30
7
16
20
0
23
18
-34
-7
33
2
-7
34
13
63
-20
-4
-23
21
1
15
-6
-5
-9
-39
1
-1
-28
0
16
30
-3
16
7
-18
3
11
14
31
5
-5
-13
-14
-18
-11
8
19
0
-31
-8
27
3
5
25
32
-26
10
-20
34
12
16
41
10
-1
-21
27
10
-10
-5
-21
1
-21
-6
-18
19
48
-43
-5
-17
11
3
-4
4
-41
-34
20
-3
28
23
13
21
42
39
-3
16
-16
20
-6
33
38
-25
-9
50
20
-14
-51
-7
-11
2
27
33
-7
-50
3
-23
-11
18
6
28
-67
39
9
-22
44
12
-36
14
45
-10
8
5
30
16
32
6
16
-8
-2
9
13
-4
-4
-47
-23
30
1
37
-52
11
34
-16
-67
42
18
11
-24
6
-34
-40
-34
-21
54
66
-13
1
25
-12
-9
1
0
-5
0
-13
16
12
11
-9
1
-15
3
-14
1
9
37
-19
16
28
31
-1
35
-18
-3
-26
16
6
16
11
-20
53
8
-27
-25
-12
35
12
-6
20
-19
39
11
39
16
-5
-34
-36
-22
-9
24
12
3
-5
27
-13
-26
11
-16
-50
6
44
-19
-57
-10
-36
-29
-13
1
-56
-20
-4
26
-38
-13
14
21
10
-56
27
60
-33
33
4
18
-20
-47
-56
-6
10
2
-19
-11
26
37
29
-40
-1
2
17
-5
-39
16
-35
0
1
-66
-28
-4
-15
-1
1
38
32
-5
-10
-11
17
23
44
-3
14
-2
-2
-30
-12
-28
-42
-12
18
-28
-22
-6
26
13
-14
10
2
-10
27
-34
-15
14
61
52
-38
4
0
-33
-17
-10
32
-6
29
12
-35
-28
-8
-4
-27
12
20
32
17
-19
-21
-27
38
0
62
-26
-13
22
-21
0
-24
5
-6
2
17
26
-17
36
0
-22
-5
0
43
10
28
9
-18
-47
20
19
2
2
0
26
14
-78
3
0
4
23
-12
-10
16
12
-33
7
13
7
45
-14
-2
0
-9
25
9
14
-4
15
-36
-39
-29
-13
21
23
-26
56
-16
-4
-50
24
-20
11
-13
4
33
-24
-11
24
-35
20
-14
8
-55
-2
8
-4
-12
3
-6
-35
29
3
2
-8
23
17
22
28
14
-21
7
-42
12
14
6
6
-18
-11
8
-12
6
-41
19
21
6
-2
25
-20
44
-3
-12
7
10
-20
12
17
27
10
-21
-30
-19
-20
-16
-26
6
-39
-13
36
19
33
-8
-7
14
35
56
-2
-34
-46
-5
-19
-20
-6
-32
-32
-18
7
-10
38
-43
-2
-43
-14
-27
3
-34
11
16
18
48
7
50
53
-28
-13
-17
19
19
3
-1
1
-53
-17
-13
-6
-34
83
0
-28
-27
-29
-20
-41
10
7
8
-14
-30
25
5
-8
18
-7
-36
51
7
-28
-69
52
12
-49
24
-13
37
10
-36
-19
-12
-25
-21
25
2
42
-17
-10
57
-8
-18
-1
-39
-17
33
-28
-29
-13
-50
25
-32
-7
-10
-3
6
-53
-17
-3
-25
-16
28
1
0
-12
18
2
-26
8
-20
-19
-8
-46
12
-29
-8
0
0
-12
17
-34
-23
35
28
-24
1
-51
-39
21
-3
-1
18
44
24
24
-33
-2
36
17
-23
4
-57
38
11
33
27
30
-12
-3
-11
40
-11
-46
-30
13
-4
-12
-45
-1
-1
58
5
22
14
-38
-37
-6
-25
-8
32
-36
-41
22
-17
41
17
-14
-61
17
40
-13
-39
48
-21
-36
14
-26
5
2
35
9
39
1
6
44
-3
-51
-13
-39
26
-6
2
1
-8
-22
18
-53
-10
0
-1
34
-55
58
-21
12
-2
-20
-16
-36
-33
-15
-6
30
-43
-36
31
12
-37
3
54
-1
-24
41
5
3
19
-30
6
58
46
13
-45
28
-7
-11
13
-64
-38
95
-15
-46
50
-3
9
-25
30
15
77
-6
-4
35
-54
9
-42
10
26
38
20
30
-3
-39
-12
-33
86
51
10
-23
-23
-33
26
9
13
-45
19
-29
-2
14
-9
12
-17
-29
-26
118
-26
-35
28
-26
0
10
-41
-7
18
0
13
4
23
-21
84
7
-17
-5
8
-36
33
-3
-3
50
-53
30
-23
6
-15
-21
-3
18
34
-48
0
6
18
0
13
35
44
-3
28
-20
-36
15
21
37
13
-61
-16
0
63
14
23
-10
-2
77
-40
4
8
-8
-8
-9
-28
26
52
11
6
-10
53
41
-14
49
-18
42
-17
-106
7
32
32
36
24
-20
0
35
4
-1
13
15
-11
8
59
-17
18
12
-9
-9
-26
-7
32
30
-20
-3
7
-30
-1
9
-17
13
17
-2
-9
5
-41
31
-6
17
-12
19
2
-47
22
-2
-2
29
-17
10
2
-9
-2
-17
38
25
42
9
-21
-20
-10
-6
35
-3
19
-20
20
-25
0
0
-40
18
-1
-19
15
12
-6
-18
-16
-7
-27
20
-41
41
-2
-6
0
56
1
-2
30
17
38
41
38
50
25
7
60
-14
-40
-9
7
-59
46
20
50
9
-25
3
-7
28
-30
42
-26
0
28
22
-3
-4
6
33
30
-27
12
8
38
-5
-31
-17
27
3
16
29
12
-13
16
-16
-8
7
-33
36
-15
-49
7
16
24
20
-26
-25
25
-22
-8
-10
28
-38
38
-48
-60
18
26
-32
-13
1
-17
9
28
-6
4
-15
-30
-6
-10
8
-31
31
-49
3
-5
17
-36
11
29
4
30
15
14
-32
9
-55
13
31
9
5
-2
24
15
6
-37
20
0
-6
40
3
-4
3
7
-3
-3
24
14
0
-51
-12
23
-59
22
-5
-54
0
-9
-17
-33
-12
-5
23
-37
-36
1
-10
31
-18
-19
-30
-25
32
-11
-17
29
7
-8
-1
-6
12
5
-29
-58
-16
-10
-22
5
-30
-14
-23
4
12
-28
16
-24
57
44
1
-5
43
-26
21
6
11
-12
-25
35
-37
3
4
0
8
0
-15
30
26
0
11
-34
20
14
58
42
-6
-20
-5
6
-18
0
31
29
22
10
16
-52
-9
18
-14
0
30
8
-26
20
-9
-24
11
1
51
-24
11
37
31
15
10
2
25
22
6
10
-3
-10
52
-15
17
0
26
26
13
6
-14
38
7
-17
-9
30
8
-6
32
70
-40
-21
10
-33
2
26
17
-17
-12
4
-23
9
13
12
-2
-9
-12
9
15
-6
-10
24
-16
-24
24
9
-33
26
-29
18
34
8
35
-6
0
-3
-36
-30
2
-8
40
10
-17
0
32
-28
14
-36
31
-12
1
-19
10
-25
-39
-44
-28
13
19
-35
-55
55
-37
-51
-31
7
35
-29
4
29
15
-18
-25
35
-14
36
-28
3
-1
27
14
-22
-5
34
-36
11
-8
12
15
28
5
27
-14
-10
9
25
-17
47
9
-4
-16
0
-20
40
29
31
-30
-32
-51
22
-6
-57
0
-21
0
22
-18
36
50
-56
2
-20
-6
50
-1
74
-7
23
-27
-22
0
-36
12
-36
-3
8
-41
-11
-36
-2
-7
-22
9
-3
-20
4
35
39
-19
-26
-30
17
41
12
-26
-28
-9
0
8
-30
-36
-13
7
4
-4
17
20
-21
44
18
-30
-17
-45
16
9
27
4
-14
-18
24
28
-14
27
22
-7
20
2
-7
-15
9
-27
32
-20
48
18
-9
-8
21
14
-19
41
2
-9
-11
20
-3
10
2
20
-37
-18
27
-9
-12
18
-10
28
-2
-44
28
19
-9
-26
-32
-5
-18
-14
-22
-30
1
-3
40
-4
-6
8
-21
-18
-8
-30
24
-35
-10
16
24
-34
-21
-15
7
-10
-11
-21
-11
-15
-16
30
44
21
-31
4
14
-28
-46
-13
-19
-8
-14
-23
17
-8
-23
3
4
18
-15
28
-4
13
4
-24
10
-6
36
10
-2
-50
32
51
-15
-28
-22
-34
25
-18
-35
-28
12
-16
15
0
17
-18
10
-9
4
14
19
10
-49
-11
14
1
32
-14
18
-21
-25
34
32
-30
0
36
-11
-12
-48
-7
8
4
-60
9
4
8
-7
28
-3
31
-34
9
-17
28
-46
26
6
4
-3
45
24
-11
43
-17
17
32
7
-6
-28
8
31
15
-3
-10
14
-26
28
33
-6
0
-20
-3
-32
20
-20
42
16
-22
-16
50
-8
-26
-12
5
-5
15
18
-18
6
-28
18
-12
12
-23
-7
-4
5
25
38
0
-39
12
-19
-26
22
15
10
-10
0
-12
48
-10
7
-5
-3
12
20
34
35
-34
-18
-11
-18
1
-2
-49
18
-11
-7
-7
7
2
11
-13
-38
-22
47
-65
33
-28
11
23
29
-7
34
39
-19
11
-10
-31
-3
41
-45
-6
9
0
13
0
-44
-32
-37
2
-33
-19
-7
12
-10
-19
6
-26
-6
-38
-27
4
-22
-10
-16
5
-20
-7
-9
47
-2
0
1
4
19
-4
8
19
16
-24
-14
18
-19
37
-21
-16
12
37
20
-41
-40
-7
5
7
-11
71
35
-6
-26
33
-28
34
27
1
62
6
-28
-8
41
-16
-11
-34
-10
-8
23
0
2
13
54
16
37
1
-28
-44
0
13
-29
24
15
-55
-16
18
39
11
1
-40
10
17
-25
-17
-24
1
23
36
40
-52
41
29
18
-10
32
22
-23
-17
25
1
-33
9
-18
50
-4
20
14
-38
15
26
0
9
3
13
10
18
4
23
29
39
-3
-21
33
-11
-43
-3
-32
0
30
-7
7
-11
1
24
-23
-26
0
17
0
6
27
-12
47
-6
22
-7
-29
32
-16
-3
-48
38
1
-2
-9
7
-32
38
-34
-5
13
31
-6
23
-24
-10
33
-22
-25
-14
0
9
10
-16
-72
-38
38
2
18
-19
-18
0
-10
-15
-24
1
23
-34
25
5
-24
-11
27
-24
-49
94
-6
-51
15
9
-32
-12
23
-22
43
-40
3
-47
14
29
33
26
16
32
23
34
14
-7
20
-20
1
-33
-8
47
-21
0
61
11
17
-27
22
19
26
-47
-23
-12
-2
40
-1
-8
0
29
-4
-2
42
-19
23
19
39
43
-25
-46
14
3
-32
-34
40
-5
-9
39
-14
-3
40
30
-25
31
53
33
-35
22
0
29
17
-50
-25
8
14
18
20
-19
70
22
-15
-11
23
20
16
-13
-10
-7
-30
23
3
-35
15
-16
47
12
9
-3
24
-6
-22
35
11
-22
-11
-21
22
25
23
22
4
-44
19
24
-20
25
-42
23
12
-19
-7
51
44
33
45
1
11
-33
-26
-19
-11
13
-14
-30
26
31
13
-7
-30
14
4
-12
-13
40
33
-36
-8
-40
1
-19
34
23
11
13
3
24
15
11
48
-55
8
-11
-7
-16
-3
26
-26
8
8
-2
-30
39
-27
3
3
42
-17
15
-11
44
51
9
-39
-39
-4
17
-19
38
10
0
10
22
17
-34
-36
3
21
35
-42
-39
24
-10
5
-4
-30
1
-9
8
-23
11
-17
30
-2
2
-16
-50
26
-27
30
-11
-37
7
23
15
-35
10
-5
-33
-6
10
7
22
30
-45
11
38
-23
-15
23
-5
10
24
21
8
12
-4
-6
24
-47
29
2
-31
-28
9
-35
-15
39
6
-21
44
-14
13
22
-16
9
-13
-5
-1
-32
31
1
36
18
11
4
31
18
15
-17
-24
-1
-35
10
33
34
0
14
0
4
16
13
6
-8
33
20
9
0
9
-9
-8
23
24
-40
9
-3
-16
13
20
-6
-52
-40
70
33
12
14
41
-11
-7
-16
-23
26
8
32
-23
1
24
-1
16
-52
6
-11
24
-17
-50
10
-43
34
30
-30
-34
0
54
9
-22
-12
7
-21
3
36
21
8
-59
-59
6
0
26
2
-23
-2
33
-22
8
-33
19
1
-18
-2
26
57
-3
23
6
22
24
46
-18
-23
49
-40
30
22
-17
23
40
19
-4
34
-9
17
-2
20
1
-10
-35
22
-1
-9
16
27
-3
26
-10
32
-59
3
-23
2
-2
-7
-43
32
21
-15
2
2
37
-9
21
-1
1
-5
12
9
-9
36
1
-8
-20
-18
65
-18
-67
23
3
-20
40
-23
-22
-20
53
-37
37
2
53
15
-14
-10
37
3
-30
25
25
-10
1
40
-35
-20
-28
-30
49
-8
10
-24
-10
5
19
40
10
-4
10
-4
-32
-43
-24
-5
13
-7
-26
34
4
-34
-21
-18
-14
1
-20
3
-17
53
-20
1
-35
3
19
39
-9
17
15
29
-10
18
-1
-5
-8
-16
24
2
9
-42
-23
21
36
3
-6
-26
-12
-8
20
-40
-25
-8
-5
14
5
-4
29
-3
16
-40
11
17
40
29
3
-14
41
-18
10
-13
15
-10
-1
29
26
-57
13
-8
-49
7
31
0
-60
-2
24
-22
-16
14
54
8
5
-27
-26
-19
68
-30
21
-42
27
-28
-16
-21
-22
-13
-5
-39
35
-15
46
-26
12
27
-26
-9
-27
-17
19
23
-46
-2
30
-23
16
18
22
10
-22
28
33
36
-3
-5
-10
16
15
-34
-14
44
16
34
12
-7
-22
-1
-12
3
-44
12
39
-28
-16
41
-8
-43
9
-15
23
48
7
-7
8
-3
2
-14
21
-38
-31
42
4
-8
-46
-35
-6
-43
-19
20
12
32
14
50
-28
-6
20
-16
-13
72
-14
10
26
-75
-2
-14
-28
12
81
40
-3
-1
20
37
38
-1
42
-24
-15
10
43
16
-1
8
64
-29
-10
-32
-36
-21
1
-12
-10
-44
-17
-29
-49
-2
-4
13
3
-33
5
-29
0
14
35
-22
12
31
13
-13
34
22
16
61
-35
0
25
-26
-10
14
-20
12
44
14
18
-27
-1
-6
9
-29
-22
46
25
19
-3
-18
-10
8
29
11
-23
-37
-12
-8
41
-1
28
38
-12
-5
0
13
23
-19
35
-39
20
50
15
-15
30
7
-1
73
46
0
-5
2
-22
14
7
12
-41
8
10
-10
-6
17
-19
22
5
24
17
22
-24
14
0
-31
7
-24
21
-13
87
-16
-35
63
5
25
-4
4
-46
-3
-13
-50
24
-23
36
35
-7
13
1
-25
-12
-13
4
-42
30
44
22
15
21
14
-13
9
-46
12
-35
7
-7
46
-16
11
-35
-32
13
-25
48
-22
-58
10
-24
9
-21
-34
18
32
-11
-38
22
6
-11
58
32
-15
8
23
14
47
-41
-23
14
-4
41
13
-2
33
25
-37
31
46
22
37
-18
-8
-15
2
-6
32
-5
-14
-13
-13
-12
6
-25
9
-30
-5
9
-39
36
-35
-3
-2
-26
-6
24
-21
-12
20
9
2
44
-10
-41
4
26
17
44
-5
-3
4
3
29
-32
-1
7
-11
-1
0
-32
-13
-14
-12
55
11
37
33
-12
-7
48
-45
14
-8
-6
0
0
34
17
-8
51
-11
-62
48
27
-27
-22
0
-7
13
0
14
39
30
-39
-42
72
-13
4
7
10
-18
45
6
0
29
7
1
-5
59
-6
52
39
-38
-23
11
-33
21
-30
9
15
-48
-14
-25
-12
-14
27
46
-6
30
10
-19
3
-9
1
-1
28
-10
13
-4
-30
-32
22
40
46
5
17
7
6
23
51
5
19
2
43
-21
0
20
8
-2
7
-5
47
19
28
-52
37
36
58
-28
26
-35
73
-36
-71
15
56
5
-6
14
10
17
-10
33
15
-21
-27
15
-33
44
52
7
-8
1
-56
5
41
6
-69
-7
-7
4
9
-17
14
-4
61
-23
35
-10
8
23
-45
-44
0
47
-69
30
61
-7
11
28
-30
-47
17
14
-34
10
-33
-40
-28
-42
-21
-1
-20
0
1
32
8
-6
-7
33
-21
41
-45
43
10
-45
8
-24
-1
6
-4
20
7
12
-8
19
-11
43
7
-14
-13
1
-23
-14
-40
28
22
-41
-37
0
-10
-23
-16
-3
12
3
0
-27
-13
9
-20
14
-12
4
-43
-18
-29
29
5
30
-72
10
50
-23
-57
15
-17
-31
29
7
-1
-17
-16
12
-34
-17
-5
7
7
25
22
-40
-37
-22
-27
20
5
18
17
-27
11
-28
-12
22
7
15
-24
-31
63
-10
29
2
-30
-24
15
-16
12
14
21
19
17
-22
21
-6
-22
22
-13
-5
-6
25
2
-17
-23
26
16
-27
38
-11
-2
16
-49
-25
-2
-2
18
-35
8
12
-28
0
-11
-20
31
5
-29
-16
19
-1
7
-29
11
71
9
-29
-29
-1
19
15
2
-24
10
-22
29
32
-22
-11
9
31
15
51
-18
1
-4
17
-37
-45
20
26
-14
-25
24
15
-25
7
-51
13
4
-21
-36
-3
-22
-33
23
-5
-40
50
-1
-9
-39
51
-13
-32
41
48
38
11
36
31
-6
-52
-22
21
15
20
50
-7
54
27
37
4
-27
25
2
-18
0
-4
5
12
8
8
-50
-46
-31
-35
-43
37
-16
-33
-4
36
32
44
-38
-33
-5
3
-7
-25
-15
4
18
-22
46
33
-15
13
31
23
-9
-1
13
35
-34
27
9
18
46
-6
12
39
-5
2
-57
70
-29
20
-1
-49
24
-7
-5
-7
-17
17
40
-22
-16
-19
-38
31
49
11
6
-13
4
31
0
7
24
-20
31
-26
5
9
-12
-23
-42
6
55
3
-5
24
-38
-25
74
20
-36
3
-4
13
42
14
-54
-11
-46
-19
7
-26
21
-17
9
48
9
34
-13
-35
37
-22
-34
-23
27
23
-44
-31
22
-39
6
-3
-34
39
10
2
-13
12
14
28
5
17
-40
27
12
-29
26
-13
-30
-34
15
41
8
-41
-29
-19
4
-5
-8
21
-21
23
0
-6
9
-37
-20
-38
2
-7
-24
-38
17
-11
32
5
22
-24
-2
41
12
24
18
-1
-7
16
19
11
-28
-1
-5
-7
3
-16
-13
1
-6
-22
34
-2
12
0
-20
-4
-27
22
-11
-4
-32
20
-22
-35
4
15
3
13
19
-2
-18
-22
-28
-12
9
-2
32
-20
-32
-36
-23
-30
46
-12
14
-8
-37
13
7
-29
-46
-27
1
-11
-20
-14
-3
4
16
-38
5
-21
-14
20
-37
17
13
35
-10
41
-9
6
8
42
-36
58
-13
-23
37
-15
0
-37
0
3
-12
-35
-20
12
29
-9
16
-3
-34
12
23
-6
11
-28
-42
-24
19
-20
-16
10
-17
-20
16
8
-8
4
5
-10
33
25
40
8
-20
-40
-1
-30
9
1
13
11
13
28
24
-29
37
19
40
15
64
-26
4
28
52
-9
-21
-6
12
4
-17
17
-24
-7
-18
46
28
-33
-25
3
25
-14
-4
-21
33
-36
13
5
0
-14
15
16
35
10
18
57
35
-8
-39
40
3
11
-1
-2
9
-3
-37
-24
47
29
13
51
-29
35
42
14
-13
30
-29
-5
-38
37
-17
36
-11
-19
-8
11
-7
-32
30
14
46
3
44
27
29
-24
-24
12
42
-10
24
-13
-26
-46
72
-46
-35
0
33
38
16
-2
-28
-18
0
-11
22
26
32
12
-15
59
-8
12
23
28
-24
14
10
-21
17
-44
-40
27
-1
-27
33
-13
13
13
-21
7
44
-39
-24
-33
18
13
33
41
10
36
31
23
17
2
0
-28
-30
7
-23
-19
16
-10
-20
-38
-15
42
40
19
22
0
-32
20
-8
-8
5
-35
40
12
20
-18
13
7
9
-41
8
-2
-29
-49
-57
29
37
-2
-50
49
-27
-20
-24
-14
-35
24
-13
25
47
-43
12
21
4
-17
0
-60
-16
-22
30
2
11
-1
48
-13
-10
-26
13
35
-24
17
-29
-41
18
7
-20
42
-24
55
50
0
-45
5
-7
-6
13
-27
-10
-4
28
7
3
15
-14
-17
-13
-10
10
1
-3
37
14
12
0
-32
-15
-19
9
48
-48
-32
-9
18
25
-6
48
-7
-11
-11
31
30
19
-27
15
5
12
13
-9
10
10
-14
-52
-8
-12
-4
-19
18
-26
3
-40
-27
-39
20
-13
10
-45
-25
-7
-40
-20
-19
44
24
-55
-11
-15
8
-2
-1
41
24
4
-31
1
-11
9
39
-21
-14
22
-10
-17
-10
-60
-39
17
-25
-20
32
-23
-29
26
-18
0
39
-16
26
12
11
-36
-19
0
20
-3
24
-9
-33
-5
-51
16
33
-13
-10
18
44
17
4
-31
-24
-9
13
0
15
-18
-7
55
-29
-13
-30
-6
-20
48
34
-16
-15
33
-7
-22
-6
28
-4
31
10
30
14
-42
13
22
-5
37
11
17
-14
-14
8
-7
20
-17
14
-26
-25
-32
46
16
42
-48
-10
32
-38
-3
5
1
-17
44
-22
31
-19
-10
6
-46
-49
25
-26
-4
40
-33
-23
25
-8
-20
-14
17
-5
0
8
-29
-22
20
-2
-13
-48
2
15
35
-36
-40
-21
-2
31
1
-33
-29
-10
21
-1
16
24
-38
57
-8
-15
47
-18
0
-13
-18
48
7
45
15
30
14
19
-6
-2
32
-36
-13
22
40
13
-26
-67
-20
3
-32
10
32
26
38
29
-36
29
16
-11
-39
-7
34
35
-19
-23
27
-22
-37
29
45
40
-19
28
0
6
-11
22
-14
46
21
-25
29
36
-18
-20
-32
11
7
7
-17
-21
4
-25
20
-13
12
-6
20
-25
32
-26
-26
29
0
-25
-26
34
20
37
1
-10
35
45
3
-30
31
-13
-1
29
-11
3
2
-18
20
-17
-16
28
13
-16
20
0
-22
-12
3
-29
0
-26
27
-20
24
0
-11
22
34
39
43
-35
20
-6
-17
53
-17
-14
-7
-22
28
-7
-8
-1
35
-26
20
4
18
-22
-11
-5
6
16
-1
25
-6
-30
-17
4
-4
16
24
22
-3
-27
25
-7
-10
-35
23
-6
25
-22
42
-10
1
40
-21
-12
38
-27
-13
-29
-17
2
-11
4
-7
-10
-11
-14
21
17
14
-29
-7
0
33
-4
-26
-18
-19
42
7
-18
-12
5
33
-43
-23
-6
-29
-31
18
43
-32
-7
-17
-32
11
-4
15
48
-2
28
-35
2
-6
2
-13
-19
0
14
24
4
-19
2
-10
-14
-8
-18
8
30
15
6
0
8
33
4
1
11
-10
-13
-31
6
25
-42
-7
22
-28
-26
10
-9
1
14
-32
-58
-9
-32
21
-6
-7
9
-11
-34
-58
-1
-12
-14
38
-21
-30
0
-26
9
-2
-4
20
-38
55
-32
-20
-18
25
-20
17
37
9
-36
64
-13
-28
-3
6
-4
8
1
-11
32
-34
25
20
4
33
12
-13
5
13
-6
36
30
46
-14
2
0
-6
-4
20
-40
-8
25
-15
-21
-24
40
-17
-9
1
10
-9
28
-61
-16
-7
52
27
8
-33
-38
8
-10
7
-17
18
2
0
7
2
-22
-29
-40
29
11
26
10
-21
-23
69
-24
-35
0
27
13
22
6
-8
29
-23
-14
-28
61
18
11
-20
1
0
-14
40
18
-51
4
-43
-20
11
-12
-6
3
-16
-10
26
-35
-26
1
-33
-4
-15
27
-28
4
-24
-9
14
2
60
6
22
8
4
-6
0
-25
-21
-37
33
-36
45
-19
-11
-38
-8
-27
-6
20
51
15
-5
42
-43
-2
20
-33
28
43
13
13
17
-13
30
-16
-46
47
13
-26
-4
84
2
-38
-9
50
18
-12
-11
18
-34
-20
-13
-39
19
-26
-34
-42
-38
-2
78
-35
39
-12
33
-25
5
-24
-6
-2
27
26
3
-12
27
10
-31
33
22
69
-7
-29
-2
-40
0
-20
-12
7
-4
37
8
31
-18
-30
12
31
-63
-7
0
-70
35
-85
-62
0
-32
33
25
-32
-7
-16
16
-19
-60
15
39
-54
21
4
8
28
1
-48
50
0
42
64
-28
-24
-18
-12
-15
-16
-12
16
-8
-9
-21
-30
-22
18
15
-18
-2
50
5
-23
-22
-33
13
-31
-15
-26
25
3
22
-49
-5
-1
41
15
25
63
19
37
27
36
18
13
23
32
-64
24
-16
-27
16
10
25
-13
38
2
37
-33
6
5
19
5
26
15
-9
35
-24
9
31
-17
-11
-35
-56
80
-27
29
30
-31
-12
41
-5
-17
14
9
-32
36
31
-1
-52
-20
16
32
-9
33
17
22
51
-35
-2
34
27
-2
-11
3
-20
15
58
-5
1
1
-15
8
-4
25
55
47
10
-2
25
-10
14
6
3
30
-40
-7
-7
44
-12
21
1
37
68
17
-6
15
31
20
0
-40
4
17
33
-20
20
22
4
-22
-33
-64
8
53
-21
-16
6
-58
28
25
9
12
-20
-18
22
26
66
7
-53
-71
41
22
-20
23
-22
-47
-43
11
-10
-41
17
-7
-48
-15
-18
6
-35
-14
2
8
-29
-24
-41
7
34
-51
-51
-18
-30
-1
-9
-49
-10
10
45
4
-28
-9
6
-10
35
-15
-57
-20
-5
-2
0
14
0
-21
21
-73
-31
23
42
-1
-31
6
22
46
-79
-38
71
-18
22
-6
-6
-39
29
-64
1
-10
11
-11
-25
13
-8
20
-40
-16
-1
14
-32
-42
-19
47
56
-54
34
35
-32
61
0
7
-50
9
-20
-9
-39
-21
37
22
-7
-45
74
-5
-32
-12
-54
41
0
55
7
0
24
11
-33
44
-8
60
26
-56
11
-23
12
21
-48
-32
6
-49
5
-41
58
-29
14
-10
-23
33
13
-18
-14
-39
1
9
-2
20
28
-3
-17
-10
47
22
18
14
10
0
-9
43
15
11
2
-32
9
0
0
5
28
17
20
-65
38
-6
-15
-44
-1
19
37
12
12
-13
52
11
-56
2
27
26
53
4
-34
-3
4
12
46
24
6
-6
-15
52
17
24
15
-31
-17
48
6
0
8
8
-7
-31
-6
-46
3
22
31
19
-6
29
20
16
-16
-27
16
-23
-15
22
-29
17
12
6
-15
-32
-49
-6
-22
20
-3
-2
13
-9
-3
12
-8
-29
-4
59
-7
2
-11
-13
8
38
5
-36
-9
-5
-4
2
-22
51
19
-23
18
-12
-25
-12
21
50
58
-7
-6
39
-18
5
-19
21
0
-19
15
-51
-3
6
5
30
25
11
-28
-22
-18
-8
0
37
-17
0
12
27
-32
20
26
-21
14
-8
31
-10
-11
-48
7
31
24
6
-2
27
-8
31
40
42
-21
1
-40
-14
0
19
7
-55
-21
-33
-33
-28
-59
-20
30
-27
-28
-26
11
7
1
-3
16
-41
7
-29
7
-9
-41
-21
45
-33
25
-54
10
31
2
-21
25
32
-5
-2
41
-37
25
22
13
-31
36
1
-8
-19
12
-20
7
5
-6
21
41
-18
-40
20
-29
15
22
7
-52
-25
10
34
32
-47
-3
-15
0
6
58
28
-22
13
-29
-27
-22
-46
-18
12
-66
22
-19
-37
18
9
24
6
34
16
21
28
-17
14
-13
18
22
35
7
14
-18
12
-24
28
-17
19
-19
-8
-19
33
20
-47
-9
-9
33
5
14
-31
-43
22
31
49
-21
6
34
25
-39
-44
-30
-20
32
14
14
15
6
-49
-1
20
-14
12
7
30
-22
-13
-41
-17
-26
12
-37
-28
15
7
-15
20
-4
12
32
6
30
9
5
-28
-25
23
18
27
-19
-20
-38
-29
37
25
30
-9
8
1
36
-22
59
3
-18
-5
47
-36
41
-19
12
40
32
56
7
42
16
16
11
26
-8
-44
-22
19
13
-24
-2
-4
-4
-1
-41
-10
3
13
37
31
-34
-14
-22
20
17
-53
25
26
-35
16
-16
-9
0
8
-11
-16
-8
20
-3
18
20
13
6
-22
13
-38
19
-6
-25
-47
6
-19
-20
-32
25
7
-14
6
-14
12
-25
-66
13
-8
-32
-11
-23
-29
-17
-2
27
-35
-18
-53
-25
58
-1
-2
-16
28
3
-17
-20
20
-17
-3
-21
-7
-10
-39
-52
-43
-19
13
54
-41
19
-14
16
-12
-4
-17
-20
23
-6
-2
-2
-30
-29
-26
-4
24
5
-8
-5
-30
8
27
7
1
8
6
34
36
-10
-6
-20
-19
36
-12
-34
-26
-10
-22
20
-22
40
-4
-24
39
57
24
17
21
55
2
-5
39
-6
-40
-2
38
25
-26
-10
-7
9
22
7
26
-45
-37
-5
-19
16
3
16
35
23
-34
20
-1
37
-41
-14
41
2
54
33
-31
0
-11
9
6
-26
-31
-12
26
20
-1
13
-25
-17
-59
-6
5
-26
60
-1
-9
42
-39
-31
22
-28
41
-34
-36
-3
-7
-11
-12
-44
41
15
-42
16
25
-27
-29
18
-11
-7
20
18
25
27
-33
-24
-16
-14
31
1
-15
0
3
3
13
58
-2
-24
2
-7
66
18
30
-32
0
-20
-19
9
-6
21
-24
3
-8
14
-31
-14
-29
67
6
47
-26
5
18
24
23
22
-34
37
45
32
1
-16
-40
25
-5
30
11
7
6
-21
0
26
24
33
-41
0
5
-42
-1
-8
14
17
23
15
40
-16
-17
-34
37
7
9
23
21
28
-11
27
-28
-3
11
-38
9
21
46
-13
0
-8
-25
12
-30
-13
9
10
30
5
-18
10
0
-13
7
22
-10
5
2
28
-25
-33
-16
3
-17
-22
-6
27
21
-4
0
28
-6
3
18
26
34
-19
-12
-23
-31
32
-36
-9
20
13
26
56
25
3
-15
47
10
-13
8
13
-2
-1
-10
-32
-18
-36
-9
11
0
36
-21
34
1
35
25
29
-26
44
-4
-3
6
-17
-21
48
-9
6
-23
13
-22
21
-4
-41
18
-20
21
49
19
28
34
41
22
33
-9
21
-9
-24
-8
-32
13
22
20
-28
-4
23
13
17
-27
33
-38
-57
-45
-42
-4
-16
-31
23
41
-24
-15
-5
-22
-3
14
7
-25
-12
-6
16
-12
-36
-11
-38
-8
14
11
13
-2
12
16
-9
27
-14
36
-1
-1
-61
-10
-7
-25
-13
-15
-2
38
28
20
43
-4
-7
14
19
-1
18
-6
6
-21
-8
-21
-12
14
-5
18
35
-3
16
-2
19
17
14
3
43
-21
17
-10
28
-3
5
3
27
-16
23
0
-8
26
5
7
35
5
-2
-11
-37
0
-18
5
66
1
-25
-9
26
5
-21
-11
12
41
-9
26
-18
31
17
-22
37
3
-2
-3
3
-15
10
4
-28
18
-18
-10
31
18
9
-30
37
40
8
7
25
13
-32
-34
14
3
-24
0
-11
-44
-55
-26
52
17
40
23
-25
15
21
5
-6
-1
-14
3
-8
0
-3
-20
-21
19
-44
20
-23
9
21
-58
0
-23
8
-7
2
-3
-23
49
10
-39
17
-30
16
27
-16
4
1
-52
-19
-22
-31
28
43
-2
-33
7
19
37
-72
-17
46
1
-10
3
11
-51
-14
-58
3
-2
-18
13
-16
54
1
24
-60
7
12
29
67
4
37
-5
9
25
0
6
20
-20
30
26
-15
0
0
-28
-20
18
-32
14
-25
0
-3
-26
-29
-8
30
-14
19
-7
-13
-3
0
5
7
1
5
18
45
8
15
-41
-31
21
21
-5
-69
-8
5
-36
-3
-11
7
23
21
6
-3
-15
21
45
-6
3
7
-29
44
-22
50
43
-15
28
-16
29
48
-40
0
-22
-9
10
3
35
-39
-17
-3
-6
-19
27
-45
-9
32
7
62
-3
-50
17
1
-16
-15
-38
3
7
-15
21
19
-40
-31
-16
42
-23
-3
0
-29
-45
32
16
-11
-24
-1
-49
-27
-9
23
13
-21
13
39
25
27
20
-5
-24
27
-10
-7
8
-8
-50
6
-39
-30
-4
-17
7
-7
-3
-14
-3
-16
-7
-29
-9
41
-6
-4
29
19
29
27
-7
50
-7
-4
-11
16
23
12
38
-55
0
0
15
19
-13
-2
35
31
24
-28
-4
23
-8
31
-42
7
-20
4
32
26
21
10
2
1
25
50
20
13
-23
-17
-8
5
32
-12
22
29
1
39
-4
21
3
18
20
43
1
-5
12
33
30
-38
-2
0
-27
29
-8
11
-8
5
16
70
-2
37
10
3
-40
29
-9
13
-19
-18
3
-3
19
-19
43
28
6
-7
8
40
14
20
8
9
-29
-5
-7
43
33
15
-12
-18
-7
28
28
-55
-30
5
-47
-14
61
1
1
-6
-28
-27
6
-3
30
-22
-51
-36
-48
-45
-41
-7
-1
17
-13
37
-9
-18
-15
-20
-22
-29
-39
-17
25
-10
-13
-4
-56
0
-44
12
-30
0
3
-42
-4
28
7
11
25
12
28
0
-11
-34
4
-1
12
-42
-24
-31
12
-27
15
18
-26
-20
-50
-3
-16
44
-29
10
-1
46
-17
-38
16
13
-9
17
-25
22
-21
29
-42
20
-21
1
-31
-7
8
1
-14
40
47
53
-1
-20
-3
-12
24
-42
-15
44
19
18
-3
9
-28
16
-32
50
10
-28
-48
-23
-25
2
34
-35
-23
21
6
33
37
-34
-26
-21
20
13
-10
-44
4
2
-26
-14
6
-18
-25
-9
-6
3
23
46
39
16
22
-25
8
-3
-34
6
27
8
32
7
-36
24
-23
-18
-9
-15
51
-22
-28
-10
-9
-24
-22
-24
51
20
-40
16
-12
11
-11
-36
-12
-46
-20
-58
-18
40
-35
-9
-61
-8
32
76
22
-34
28
-15
-37
-48
-2
75
-9
16
-25
1
-14
-22
-47
-29
-3
-12
19
-33
30
55
21
57
26
6
-4
-14
-2
11
-13
-16
12
36
-3
-22
10
14
-47
26
2
-21
-37
40
33
-6
2
25
-34
-5
-17
8
100
16
-28
-6
9
-48
-52
-57
-10
-12
37
-12
54
20
14
-42
55
10
-16
25
-3
-16
11
-6
42
-22
-43
-37
-62
52
-35
-17
16
5
-23
24
-41
-18
-42
-49
33
-34
-11
10
-46
-61
-65
-34
30
47
-30
43
-41
52
49
-14
12
-20
0
-18
47
-36
48
-26
4
-29
-33
0
8
36
-14
-23
25
25
-39
-44
-10
-20
4
-41
17
-10
17
25
7
-33
-3
-16
43
1
0
15
34
-11
-36
7
26
-11
8
8
-6
-4
-30
8
-15
-12
6
34
15
1
-11
25
7
-15
37
10
-1
41
-30
-21
26
6
-12
8
28
-22
-6
37
32
-7
0
-20
7
30
27
9
60
-20
-30
7
-9
9
13
-21
-5
19
-55
-19
-20
-42
15
34
-7
21
-31
-21
-24
61
-95
11
-14
7
-35
46
-34
-30
-13
4
8
7
0
9
-3
58
47
-27
18
-41
-34
-14
51
-40
22
23
-14
-45
11
5
-10
57
6
-30
2
-3
-19
-30
-6
6
-46
-64
45
-4
22
-43
-13
-33
8
0
4
44
26
19
-8
-30
3
32
35
-6
19
-32
-21
-9
24
18
-3
62
17
11
12
5
26
-15
-2
-9
14
-26
-16
0
-25
21
-18
-5
-35
20
8
-45
-13
2
-1
-3
23
11
-4
43
7
10
34
0
-9
-6
-40
-9
4
-5
-16
30
-8
11
-15
7
-9
29
-11
4
0
1
-15
9
-40
28
-9
-24
-3
39
-3
10
14
10
10
-16
1
20
34
19
-12
-17
0
0
25
9
57
-35
14
47
-29
9
-41
36
-15
18
-7
-68
7
-8
5
-27
21
6
-40
8
-9
-32
-30
7
8
19
9
10
21
-30
-19
9
3
36
12
10
10
0
25
16
20
-24
-43
-19
-44
-44
-27
-34
-29
5
10
-44
-23
5
-20
21
-9
-28
18
-26
28
33
42
-38
26
7
25
-40
26
-22
46
-52
35
9
-16
-4
18
-47
8
-6
-23
-10
-10
52
-21
-34
-38
-13
-24
43
-3
8
-16
27
-29
-26
-13
-16
10
6
5
9
-18
27
8
-2
6
0
-9
-31
-30
-24
-9
23
20
-17
11
6
35
5
0
-31
12
-13
12
-11
-48
16
3
35
-25
28
50
-31
16
-2
-13
0
0
-2
1
-2
14
12
14
20
13
-27
47
38
-2
32
-31
1
4
-20
-8
-6
-2
-28
23
5
-13
-12
-27
11
-35
13
28
-3
5
-25
-4
-6
-27
-41
-52
8
-23
21
0
-17
3
15
27
30
-37
4
-10
-21
-11
-21
11
16
0
15
40
0
1
11
-24
-30
18
-15
49
-20
25
-37
-34
18
-15
4
7
-22
-12
49
3
-2
36
-11
-7
18
-35
-59
7
-1
-38
-30
7
38
-50
30
-42
0
-25
-14
3
-11
-19
72
1
-13
57
-12
-3
30
-12
-45
0
18
-7
0
-30
-2
-8
-41
0
0
21
1
5
-8
-24
6
-38
47
-61
47
-24
-29
-6
-44
18
-13
-31
-18
-63
-37
12
5
40
-41
-60
-34
41
-18
53
-13
9
-15
26
34
-51
6
1
29
-15
5
10
-26
-6
-25
35
-11
-17
13
59
-1
4
47
-20
-4
4
-40
51
25
-30
-12
-12
13
-12
22
-10
36
-37
15
20
29
5
-32
5
-36
-45
55
-16
-65
-2
26
32
-2
-19
62
31
7
4
36
48
-4
-45
24
-20
-1
-30
-25
-45
21
-32
18
26
-3
-11
40
-39
-18
32
-14
3
0
6
28
14
27
36
-41
-1
24
-31
-26
18
3
24
-27
11
45
-40
-9
54
-50
13
-20
8
-26
-7
-3
-28
39
44
0
-6
9
22
51
73
58
-42
43
-21
-2
-15
-5
1
-15
10
-35
15
-10
4
-32
-25
51
-18
4
-4
14
5
-16
-25
39
17
-15
-7
34
-71
47
-60
2
18
0
13
-28
-7
0
19
-22
-17
13
-10
16
33
-6
13
29
-26
-45
-3
43
0
-8
-19
-17
7
-28
-7
-1
-21
6
-20
27
-1
-14
13
4
67
23
47
11
34
24
-6
6
59
-12
-9
-8
0
-51
-17
10
9
24
0
-94
-28
-7
-41
14
-6
17
-19
-4
0
22
-21
15
53
-37
-1
9
10
54
11
11
13
-71
23
48
0
-4
-8
35
1
-40
-3
18
11
30
-27
-29
1
-42
-34
-35
11
-24
-8
-35
14
32
-19
6
15
-12
-52
52
-4
-17
-47
-42
5
5
-4
3
-13
22
-22
15
72
23
-13
21
43
-10
20
-25
5
-28
49
25
-2
13
0
-3
-17
-21
-12
39
-11
0
29
-19
-7
37
-19
-11
5
-36
-8
22
-49
-32
-34
-5
-34
-21
-40
-28
21
2
-43
1
47
-11
19
0
11
3
-11
-11
-20
-31
5
-12
13
-29
-29
18
15
32
14
-34
0
20
31
30
9
-60
-36
-26
-8
-15
-17
-37
18
39
-12
34
-31
-4
13
-2
13
12
-8
13
21
-56
10
-55
-19
-25
19
5
-43
-9
-5
25
-26
28
13
17
-18
-6
7
-12
0
-32
0
6
-4
-38
29
-10
-11
-19
-30
-21
28
-25
33
-24
2
-14
28
36
0
-16
-8
14
17
29
29
26
-38
7
-14
-21
-2
40
0
0
-23
-21
20
17
2
-20
1
46
-20
15
-27
-27
-22
-4
-34
9
19
4
35
-48
-17
5
-44
-40
17
-35
-25
-29
21
-13
19
14
12
-46
23
16
-16
44
0
-11
-22
14
19
-2
13
-32
-5
-25
0
7
35
36
-5
-11
-21
14
-2
-7
-14
24
-46
2
20
-13
-54
-11
-23
68
-3
-35
-28
-25
3
30
38
17
-11
-50
9
-39
36
-10
-55
40
42
-54
-81
0
-34
-54
33
-47
26
4
3
-50
0
18
9
42
24
3
8
2
17
1
-18
-40
-28
-11
-42
38
7
2
28
23
-58
8
-49
6
-53
-31
-25
13
14
25
-47
2
57
22
-13
29
-21
19
52
-4
43
-21
15
27
23
15
55
18
-34
-58
-13
-7
-31
-18
-29
-53
21
19
6
-25
-1
6
-17
-49
2
-2
30
-19
-23
20
-7
44
18
13
-44
-10
-1
7
68
67
-6
-21
-38
-22
11
20
12
48
10
-46
16
-17
7
-4
38
48
-29
-35
21
27
-9
4
25
14
-20
45
-25
-34
-6
40
-9
9
60
45
-38
38
-20
8
-54
-19
-27
32
36
6
30
19
28
-8
-44
-9
34
13
-20
-1
-19
61
-60
-22
-53
8
2
-47
-2
-32
-23
-11
-37
14
11
45
18
4
-56
-44
40
-48
51
7
5
1
-31
11
-19
-19
21
9
-55
0
0
12
25
-1
23
34
34
12
-10
-32
0
36
12
-13
-15
-3
-14
-2
1
62
-44
14
-35
13
-11
-14
-15
35
17
35
-19
40
10
-7
11
-10
19
10
3
-15
6
-18
-6
10
-9
19
-22
8
24
-33
0
-18
-12
-32
-10
-26
32
-20
-14
-28
32
-14
3
-35
-9
-5
-11
-13
33
14
-14
-4
-12
14
2
-7
16
24
-25
-1
13
-24
-33
-23
-17
3
-11
36
21
5
3
7
3
-33
-36
-24
47
17
-10
67
-8
1
-5
2
33
-3
28
-2
27
-1
14
3
-18
5
-12
-15
-11
-1
13
-16
-17
-11
20
-12
0
18
-27
-22
38
2
-6
10
13
47
22
-6
8
7
34
25
14
-32
-20
-19
-20
34
-34
-41
-25
-67
-14
43
29
-3
-3
-25
-27
29
10
28
-4
40
10
-18
17
-34
24
-12
28
13
18
12
8
-27
-29
-21
-18
28
-1
-51
35
17
36
41
-7
-33
0
48
-51
-1
0
32
-44
21
12
-3
-28
20
25
-33
-49
36
31
-27
39
-17
-9
26
-29
-14
1
34
13
2
20
-6
5
25
-12
-50
-32
19
10
23
-48
-19
14
-32
16
-1
22
-14
-15
16
-7
24
0
16
-34
20
23
-28
0
23
28
-26
-17
-18
0
-18
21
8
55
-27
-26
-7
-25
-36
19
2
16
19
-44
12
9
15
-16
0
-8
-57
38
34
-4
20
-6
-26
-11
-19
41
14
-23
23
-11
5
-24
-17
-2
19
9
-3
-2
12
21
-8
-13
33
-35
-24
-23
-33
-3
6
30
9
7
-7
-31
-7
-32
17
-27
2
-20
2
-26
16
0
22
-10
4
-33
7
17
-14
14
-31
12
26
9
36
-14
14
-11
-20
-4
-13
-30
-17
13
-57
-28
26
1
41
-39
-36
-27
-45
20
-15
-7
-36
29
39
-21
-4
-11
26
7
-4
-29
-16
15
-2
-32
-37
13
-38
-42
-20
5
8
49
12
-12
-30
-5
-8
-30
-13
15
-10
-66
6
7
-18
26
34
19
18
4
13
36
48
-27
13
-2
31
-32
28
-55
55
0
2
-39
-9
15
3
23
0
38
13
19
-1
21
47
43
-9
-34
-30
2
20
-46
9
3
-40
8
-33
-31
4
-13
-54
25
-17
7
-27
13
13
24
-20
11
-23
-9
-3
-36
-36
27
-17
-23
0
-2
-26
-23
4
-65
-15
-29
-66
-38
10
-28
-14
14
13
5
-21
-45
2
-20
48
14
-33
6
17
0
-27
24
-1
36
27
-41
-72
-61
48
-1
-4
19
-32
-4
-35
-23
12
-51
47
9
-47
-55
18
24
-10
22
-27
-19
60
-9
21
9
10
-24
-2
-12
9
15
-26
-40
-17
-26
-10
-25
-18
13
0
6
20
18
-22
15
21
19
-38
29
12
3
-4
4
-6
11
10
-47
27
12
-39
-39
14
-18
2
-16
47
7
-28
-23
2
31
18
16
61
6
-37
-13
-47
19
-12
10
-39
-3
0
8
-8
-23
-40
-52
-41
0
-11
-49
10
-4
5
10
28
-28
-29
-21
29
-43
11
-51
0
-25
17
8
27
13
-23
-14
11
18
5
22
6
-18
-1
-9
-40
-2
35
-23
-61
12
-10
-6
6
5
32
-17
-10
-36
19
15
-1
6
-51
-49
36
22
21
10
15
10
-34
-42
23
3
-23
-23
-33
-30
5
-42
0
-25
13
1
-24
-37
-49
-15
-10
17
-34
8
-16
-2
-15
-18
-13
-37
6
21
66
-11
33
-42
21
18
-10
-30
-20
-1
14
-3
42
24
-12
-21
-2
1
-12
-20
0
3
-38
19
40
-2
58
6
-23
-23
-9
-9
5
0
-13
-15
10
-20
31
-35
-1
-10
-9
-32
10
-40
9
0
-1
13
-17
9
-41
-7
-10
-34
23
-30
18
93
15
2
34
49
-56
-19
-21
-30
-20
18
20
-25
-9
0
-47
-48
0
26
21
6
23
-22
19
7
-30
-2
27
19
25
-3
-26
5
-42
-49
-32
-25
17
-26
0
33
-28
-22
42
3
22
-10
-63
5
-49
0
34
-2
-35
0
-11
-23
-9
39
26
-31
42
66
-33
-14
14
-15
-13
9
-10
51
32
29
24
28
-11
-38
0
29
-30
20
2
-21
17
33
-2
-1
-16
-19
15
-21
5
19
-15
-61
56
-3
-10
0
-64
-39
-10
-49
-23
-2
54
-24
-5
15
-28
27
-4
44
-18
-16
-15
13
23
57
-13
12
32
9
26
-51
29
4
57
-22
-50
33
39
8
-32
12
13
-15
-4
-7
-9
73
11
-10
-33
-50
-34
-29
35
-1
0
-17
-35
19
28
16
-59
20
19
-2
9
-38
43
-9
3
-29
-25
-17
8
14
-11
3
-17
26
-24
-14
-26
-16
0
28
23
29
39
-1
5
-38
-10
12
16
4
0
12
31
16
-5
36
-8
-8
-12
27
-29
-49
-42
27
-49
0
36
22
33
-23
31
21
-24
11
3
-5
-25
28
-22
-16
-34
54
6
-15
-9
-36
-25
2
-10
30
-8
-9
13
-39
-21
24
-11
13
1
-18
-9
54
-3
19
-22
54
5
-15
35
20
-52
-10
10
27
14
-14
-5
-10
3
-15
24
-34
31
-1
-16
7
-14
79
-33
12
25
34
63
0
-12
12
-24
0
-20
4
11
-76
-2
17
-17
-33
-14
-34
29
-30
40
0
-17
-15
-23
22
0
9
2
50
-20
7
-36
-31
-25
5
-21
-14
-22
-30
-25
-34
21
-26
-11
36
-30
36
21
6
-2
25
-39
10
18
-5
24
17
51
21
7
49
37
-28
-27
43
3
-32
13
7
5
43
21
-21
-45
36
-18
19
11
-8
5
-23
1
15
-40
0
47
10
16
11
8
19
6
33
9
-6
-48
16
29
-13
14
37
5
-6
51
-12
1
-18
-54
49
15
-2
-9
22
34
7
-6
-11
4
52
20
-3
-2
-20
4
-4
10
-27
-32
3
5
25
2
-34
53
-17
69
4
-18
-16
-45
-10
3
30
-43
14
-9
0
21
-32
2
18
50
-29
25
-46
34
16
-23
0
0
24
35
2
-48
-15
37
-4
26
-11
8
-40
-13
29
0
1
20
-3
-16
-9
-3
8
-24
-14
-1
-63
-56
6
-23
32
-4
-48
-47
-27
-3
-22
13
-4
28
45
-19
11
-37
36
22
-27
-28
10
56
-1
0
31
-20
24
40
10
6
-39
24
-16
-20
-11
5
-8
-39
26
-4
22
30
-30
5
-33
-13
-17
5
-30
18
-50
-16
-6
-42
-9
-10
-31
-10
-14
1
8
2
13
-5
34
-28
49
7
-30
-54
51
-23
15
-52
25
26
-32
-13
12
19
-6
-19
24
17
0
29
23
58
9
14
-19
-4
-18
5
-15
-31
-45
7
-12
-56
-35
-5
-20
-14
4
0
-43
-16
8
16
58
-44
-29
-48
-21
2
-3
-22
25
69
-2
-7
31
-11
18
11
-13
21
-50
34
-12
-24
14
13
50
0
-5
24
-34
37
73
8
-22
-1
-73
-10
0
10
-43
35
50
-24
-21
43
49
3
-41
13
19
13
-8
45
25
-34
5
8
1
-62
31
-39
8
30
5
8
20
52
-7
4
0
1
20
7
3
26
5
-2
51
7
15
19
9
-27
24
-5
11
-29
-3
22
35
-36
-13
18
7
-34
17
-31
-29
-1
-33
16
4
-13
-9
-10
-7
-7
-2
-12
-19
0
33
-34
-34
-3
20
0
29
-4
5
9
-9
-24
-39
-2
9
10
-26
12
-23
-34
11
16
44
13
-8
15
34
-26
-7
-19
34
10
-22
-8
-7
-2
-16
46
-5
-23
9
-26
-5
-24
-35
3
-34
1
-32
-9
-26
-1
1
-4
-1
11
-6
-36
27
5
-27
4
-2
1
-22
14
-5
3
29
0
-20
-5
-21
34
22
19
-11
35
-10
-11
-27
22
-13
-22
-25
8
37
-43
-38
9
10
5
6
-46
11
5
-40
-14
-9
16
-12
-29
12
16
28
-26
-20
13
-17
-6
-6
13
12
-10
18
-25
-4
28
-8
4
20
10
-5
23
26
-10
-13
-15
0
6
13
33
-33
14
28
7
12
24
15
-20
27
-24
22
8
11
12
17
-45
-46
-40
33
14
-9
-14
15
-48
-2
-5
30
38
-34
5
21
34
-5
-3
5
-5
20
-14
12
0
26
26
2
-35
0
-12
-1
-3
-26
-8
23
11
9
6
31
-1
48
2
27
-44
-38
3
0
41
-28
-11
36
-9
2
37
-17
-28
-55
0
-46
-4
-15
-32
15
2
-37
-6
0
6
10
22
0
-9
7
16
42
1
27
14
8
0
-26
-11
16
38
0
24
-31
11
-24
-19
23
-39
-4
-21
-6
-16
1
9
36
-22
6
-23
0
42
25
23
20
20
2
-14
28
28
-57
-18
14
-22
32
51
-8
-27
5
-12
19
-9
28
-31
27
-8
10
22
7
-12
0
-11
0
-9
-11
20
15
-29
-11
-23
22
15
36
23
59
-3
3
21
-19
-1
-2
-40
24
-43
-24
-14
40
-40
-24
2
-19
0
-1
20
-34
-27
10
21
14
13
47
-6
-22
41
-21
9
-11
43
4
27
21
3
-1
16
3
-41
48
32
24
13
-32
-33
31
-21
-30
9
-16
-49
-20
-68
13
3
-18
14
30
19
-2
-46
10
-22
36
0
0
0
-13
13
-28
44
18
-43
-46
-41
-27
-18
9
-25
-28
14
21
44
-72
-5
9
-16
7
6
6
15
-54
17
-2
39
-10
20
30
19
21
-4
34
46
44
-27
33
-4
15
7
-29
-8
-57
11
5
32
-5
-12
-29
32
-31
16
-27
47
-29
-1
1
31
34
-28
-5
-18
-17
15
-14
8
-1
-22
-21
32
25
0
36
1
0
10
15
12
-11
32
41
-41
26
-72
-8
18
-31
39
-10
2
8
-14
-29
0
4
-28
-58
29
2
-6
-12
2
7
-31
19
25
-11
-27
-5
2
-12
-7
14
-37
16
-45
-5
10
-18
-22
-21
24
-29
29
-19
79
13
7
10
-3
-18
-25
0
10
-1
21
10
22
28
19
23
5
-12
-15
16
-32
54
-2
0
-46
-16
8
-52
6
-7
-14
-35
24
-5
6
69
43
30
-57
26
7
-13
33
1
7
5
25
15
-19
-16
-36
28
45
-4
18
-17
8
39
-54
-1
-26
19
40
8
10
14
-5
29
-18
9
-35
-12
-16
-13
19
48
32
-7
0
-26
33
-3
-6
-1
2
-1
-30
13
2
-20
0
48
-32
-12
12
-27
-6
-39
-20
-1
9
-16
36
-24
2
23
-10
21
16
-32
-29
3
9
-13
-33
10
-10
-7
5
1
-13
28
5
9
26
32
-40
-7
12
-40
-23
22
-42
4
36
-13
-1
2
-12
18
2
-28
2
-8
20
-1
-6
24
37
-74
-15
17
6
2
24
19
15
27
-17
-12
-9
-39
-9
-14
4
18
38
-19
-4
6
-17
-20
19
4
-14
43
-29
29
-14
-56
6
-9
2
-5
-19
26
6
-11
3
-27
-27
-25
35
-13
30
18
34
9
8
25
-19
31
14
-9
27
39
-14
10
10
-16
-10
-22
-2
-54
-3
4
3
-10
53
32
24
18
10
12
-3
-33
4
-42
20
34
-2
1
5
-15
11
-20
36
4
1
-17
-14
3
52
6
-29
8
-26
30
-19
3
25
25
-43
-14
-5
42
57
-8
7
-8
-43
36
15
-10
9
39
43
-51
16
8
-34
14
22
-30
-6
-26
-6
-23
-14
-10
10
-5
-33
-30
22
-9
-27
11
1
12
-27
-45
20
6
-20
25
49
-41
18
9
-8
13
-22
7
-29
46
16
50
24
-4
2
31
-33
6
24
5
70
28
13
-23
-5
-33
49
-19
4
46
22
33
-19
7
40
-13
8
-13
2
9
39
0
47
8
28
5
-20
-49
1
8
4
-17
13
24
34
-23
-2
17
7
19
-6
-14
-22
-5
-43
-34
32
-41
1
-9
-2
27
-41
0
11
25
23
12
-41
-12
34
-2
-18
8
-42
7
7
-5
-14
-28
-42
-32
23
-29
35
-8
30
-42
2
-30
14
24
-17
-40
5
29
-32
-19
3
23
20
-3
-10
-44
-26
-18
5
-7
-16
-18
20
-17
31
25
41
-18
69
-31
-3
-11
4
-22
7
-20
-21
-23
16
-11
45
21
29
-34
27
29
13
-5
18
-4
0
-3
10
-38
-13
30
-35
22
8
0
24
-26
22
16
24
4
-54
27
23
17
31
0
-51
36
27
33
-31
1
46
-2
-32
4
-43
-28
-39
0
-16
-13
14
-24
-39
-21
-30
21
-12
12
19
30
-40
-5
23
4
-16
-23
3
-5
-21
-10
5
-21
21
5
-29
-24
36
-53
-2
1
11
34
-28
-48
-11
32
-6
10
23
6
-25
-38
-2
6
-64
22
9
-12
-41
-11
-11
35
10
16
20
-15
-2
29
27
-23
21
27
22
29
19
24
-50
-49
17
5
-13
11
-16
3
-18
21
12
6
11
-12
-28
-29
-40
-1
-41
-43
5
28
4
32
9
18
-9
-28
-44
-36
-33
-7
-8
-17
5
11
-7
36
-53
-6
-21
-18
-29
49
-13
0
-19
-27
-17
-16
-5
-33
16
-15
17
-39
9
12
48
-38
13
-15
-18
26
11
-16
-11
24
-14
-42
20
28
20
-3
9
-35
-14
1
35
7
-11
8
-22
37
4
-12
-37
-21
18
-27
30
-10
-18
-21
-18
31
31
-10
-1
22
27
-1
-18
-34
30
2
15
-21
15
-12
-41
-29
-5
11
-16
6
15
11
-42
-20
2
-5
17
-14
-23
8
0
30
3
-34
35
-15
44
-26
-43
-2
4
-8
-18
25
22
-29
18
-12
-25
-7
44
33
-9
7
1
-33
47
-21
-13
-18
-13
24
31
-6
-23
1
-13
-5
25
-42
-5
4
-26
6
10
32
29
9
-46
6
-13
5
-5
-24
-37
-29
-9
-7
27
18
7
30
8
-19
-36
-14
-6
-11
-24
-30
-23
-27
13
0
8
32
23
-1
33
13
-31
-12
-31
-16
21
-28
14
16
31
44
-16
18
22
9
10
-21
0
-7
-14
-24
-25
-28
9
34
-27
-5
-4
26
-10
-30
-10
15
-45
-27
-17
-1
-7
-28
-1
28
-21
16
31
-5
-5
7
-33
18
-19
0
0
13
9
36
45
-43
-44
-14
-23
0
40
39
19
1
23
-50
12
31
-4
14
1
-30
38
13
-6
-16
5
5
28
-44
-33
7
8
-6
-20
31
-12
16
-37
10
20
-8
-7
-2
-30
9
-44
10
7
32
-15
-10
40
2
-5
-32
-11
42
-7
10
-35
-46
-23
-29
0
25
13
11
32
10
-16
9
18
-29
-7
-22
-12
-10
-31
-10
8
-3
9
6
10
4
51
17
-53
4
-5
-25
22
-33
2
-44
-27
44
44
-26
50
-17
-30
46
31
7
27
6
31
-73
-40
5
-4
-30
47
27
67
11
-9
24
19
-24
-19
13
-33
-17
37
-33
-35
-15
11
-18
-12
0
-23
-31
-47
19
-41
23
-28
45
-6
-52
25
59
16
-16
9
8
-37
48
-7
6
-17
-25
66
20
-35
6
-29
28
-37
-50
21
36
26
33
-8
36
14
49
11
34
-70
55
45
23
4
-43
30
20
-5
39
31
5
-45
-16
20
-2
0
18
5
13
-20
-27
15
-2
59
-28
11
35
-33
2
-8
32
23
41
76
0
-19
-25
28
41
48
20
-27
1
16
33
65
-24
-16
-3
14
-14
-10
45
-8
-32
11
58
-17
-18
-37
23
24
-15
1
14
-28
23
-24
-3
-18
-19
4
26
-39
28
31
1
42
25
-36
2
-34
13
-11
2
-15
-48
67
0
-19
-25
29
-29
-43
-43
-26
-15
21
22
47
-29
66
-26
-37
45
-21
-28
-25
-20
-12
-12
0
19
36
38
26
11
-32
3
-37
-2
29
12
2
-35
-17
7
19
-17
34
-5
-5
20
35
16
-8
17
-26
0
-46
58
19
-20
7
-19
18
55
4
1
-25
-46
-25
35
28
15
0
32
9
14
1
19
6
23
5
41
16
10
-3
21
24
48
-8
-31
-12
-33
-2
-10
-8
-17
-17
40
-15
-11
23
9
-2
-13
-9
-16
42
22
-22
6
-24
17
4
-30
0
-10
8
18
23
19
-2
15
47
17
-11
5
-48
4
41
-10
54
-11
-11
-22
18
-28
-12
7
34
22
9
22
-31
17
-39
1
26
8
20
30
-11
-5
46
3
-8
-19
16
-4
16
28
-9
32
-4
-26
20
-23
20
21
-10
8
42
-5
16
40
-41
15
-53
25
25
-32
29
38
-11
-12
-11
10
-2
-25
-7
5
19
-5
-15
-15
39
-9
9
-14
-22
3
-3
-10
48
12
-5
4
-12
33
37
-23
38
2
16
-12
-1
-24
17
24
42
5
31
-14
28
-16
-1
-36
72
-19
-9
24
-53
-2
-40
-35
-48
-6
22
-34
-24
7
5
34
-46
2
19
5
-11
34
19
-34
-23
-17
-37
2
-9
1
-24
-3
12
7
0
4
7
24
-39
35
-2
16
-29
-1
-1
12
4
-3
-3
47
-53
-3
-29
-25
32
-15
-7
-25
-12
31
49
-11
25
-2
-1
-15
-20
-16
-23
-21
35
37
24
-38
35
-31
7
4
-43
-48
12
-20
-7
7
23
-27
-12
-33
20
12
-38
57
3
18
-15
10
-45
-38
21
9
-32
-15
-13
-5
-18
23
13
-5
40
3
-2
-23
-23
-34
0
7
3
-37
8
0
-15
-29
29
-38
26
-15
8
21
-15
-5
-23
23
10
19
-4
-1
31
43
-30
-6
-8
10
-5
45
2
50
0
15
6
48
41
-11
11
10
-1
-40
29
-6
27
6
-11
-7
8
-2
26
18
-10
-26
-42
13
26
-26
-2
-4
-2
34
22
-4
-17
-21
-20
-69
18
38
3
28
3
27
71
76
-52
-42
14
-1
20
-2
-5
-2
12
18
-9
-12
20
-17
30
0
38
5
14
-40
7
10
15
7
39
21
49
37
19
-13
17
-44
29
30
-9
-76
3
31
-9
-9
7
-29
5
3
41
1
-29
-23
18
-11
19
21
-19
48
-4
-5
-29
-2
-2
-45
-37
-30
12
-18
21
12
-26
28
12
14
-20
58
40
4
-15
8
18
33
-10
7
-17
-1
38
19
17
19
10
23
-42
12
-25
30
45
22
34
31
38
-28
-55
-12
-36
36
2
-54
-27
-28
-3
-5
-9
-13
2
13
-26
-5
12
-2
-40
33
-21
-24
5
-7
-35
-7
0
-7
-38
13
-9
-18
33
-51
-7
39
26
-3
-12
9
-37
5
-4
64
-28
0
-8
-20
24
15
41
8
8
0
12
-11
-15
-55
28
8
-30
-35
-12
-17
46
-19
35
13
-8
-5
-15
-28
0
34
0
6
-19
24
-20
12
28
-21
0
-28
5
17
-30
3
-3
-19
31
-8
12
21
15
-32
-31
17
12
5
-4
-11
11
30
50
5
-16
51
-10
-17
-11
6
33
-32
-5
6
22
-10
27
10
33
21
-25
5
-27
-27
9
6
37
-11
7
-8
10
-7
-21
0
-5
27
-7
-9
-32
-18
-62
41
-29
37
4
-22
-5
8
8
0
-29
6
-12
14
15
-19
-42
0
11
-14
-54
-21
-6
-5
28
-25
27
-12
-1
10
-38
13
-6
14
22
2
13
17
4
7
-15
-22
9
44
-14
33
4
33
-40
-32
23
19
-6
-56
34
-8
18
9
-17
16
-50
34
28
7
-15
28
-30
0
5
-11
-25
27
-17
20
4
-18
0
-12
-13
-13
-6
-23
-37
-13
11
-30
-3
48
-6
12
21
-15
43
2
-9
14
14
-2
34
-50
-5
19
-10
-35
29
-10
-48
-20
24
2
5
5
-17
9
10
17
8
-34
48
13
-31
-23
-20
5
-24
-23
-1
-2
10
15
55
-7
-29
-28
20
33
3
-20
34
-10
-7
-48
-51
-14
-24
17
0
19
8
29
-20
23
-15
22
10
-76
31
29
41
-3
19
6
9
-9
0
-6
0
-9
-15
9
-37
-2
-6
4
20
13
-13
19
36
-34
-30
10
-32
15
-16
-25
-16
37
29
17
-16
10
-10
-12
-35
18
-36
-6
14
-1
23
15
27
23
16
5
26
7
29
10
24
23
20
26
-32
14
35
18
5
4
11
-11
6
-52
0
16
21
0
-25
-10
25
-30
-50
-22
-10
-30
15
-14
13
-29
-30
-36
-24
34
37
19
-24
27
57
28
38
-27
34
21
47
12
-46
10
-6
13
-23
15
28
30
-25
-32
-22
1
0
28
29
-16
-22
18
-10
-6
16
-24
49
27
7
0
-2
6
10
30
5
-28
-30
16
-57
-18
-8
4
-29
19
15
9
33
-27
9
7
17
13
-38
-80
-7
1
-30
-23
-42
-52
16
1
-2
16
7
-10
-18
28
8
-30
15
-16
-7
-38
18
4
-12
-19
10
-11
-7
-10
-16
38
10
2
-11
-2
3
4
27
-14
-7
-19
0
-33
-6
-25
17
-30
35
5
-24
21
-5
4
2
0
-5
-6
0
-13
-22
23
17
45
40
24
-5
-38
20
-30
-2
-20
-6
-2
7
-27
-15
6
0
-28
-14
-29
33
-26
27
-2
7
-16
-43
-18
15
19
16
25
22
-18
1
12
-2
-20
0
-44
-6
-2
29
-28
-11
22
15
-4
-10
40
-24
0
-18
-15
18
57
10
33
0
-15
-32
-27
-1
4
-10
9
-21
41
32
25
17
42
-29
-4
-29
-30
0
16
20
13
24
-22
2
-41
-54
3
-18
-15
-1
-34
39
23
7
14
-35
-4
8
-17
19
28
-8
-30
-28
31
-12
6
-22
-10
-1
13
-35
-2
32
36
0
-10
3
18
55
20
-20
17
0
32
-4
6
16
-12
37
-26
20
13
3
3
34
-30
-21
7
9
15
1
8
19
-22
-8
-20
-17
18
26
-32
-5
25
25
-12
9
37
-10
24
18
17
19
-26
10
-45
18
-26
10
49
-56
-6
-18
6
-37
-2
-11
15
-66
1
-3
0
17
20
-23
5
-11
51
33
12
17
18
-9
11
0
-47
-47
22
-21
4
14
-12
-12
-4
-4
-31
21
7
10
-1
-10
-50
51
34
-18
50
-42
16
22
-32
-6
0
32
33
22
21
-45
-9
-49
32
-43
14
-6
-26
1
-17
22
5
34
-2
9
-14
46
11
-29
-28
4
5
-2
30
32
51
-7
24
6
-39
31
-29
-49
-8
-5
-9
26
-6
29
7
-13
30
-8
-22
2
-40
-22
23
27
-21
-3
30
-3
6
27
23
12
26
17
-39
55
-1
-16
21
14
16
7
13
-29
26
-54
20
7
23
4
25
-28
11
-8
16
21
28
2
41
-43
5
-20
-30
36
20
-37
-33
-7
42
1
14
-1
26
-43
-7
47
-33
16
42
-9
35
-2
-7
-44
15
4
-10
5
-4
40
11
-14
-9
-18
14
31
13
-32
29
20
-16
-42
-28
44
0
-3
3
-31
15
24
-1
36
-26
-20
-20
13
23
7
3
-9
32
7
3
7
-16
16
-17
7
20
28
-30
-2
26
20
49
21
0
26
-29
29
21
16
-24
63
-25
65
1
-52
13
-18
23
5
-10
20
-28
30
-34
31
-6
3
14
45
-13
-9
6
-10
33
-21
32
-33
-15
13
-33
4
32
-10
-27
-14
42
48
36
25
39
14
3
-40
-2
-45
-4
7
-8
15
-19
47
0
-29
10
-18
14
8
30
-17
-33
-31
-43
-10
-5
-1
-28
-26
3
-22
-9
-24
30
56
11
5
46
-11
-25
-53
-29
-17
-18
24
-15
0
-31
-33
-23
-9
-36
74
4
2
0
-27
-23
-13
-10
12
9
-6
-23
1
-15
-29
25
13
41
33
16
-53
-15
8
0
8
23
59
-25
-3
35
-7
-14
22
10
-2
47
14
12
-14
-22
27
1
-5
11
2
0
-7
59
-14
1
-8
8
2
-13
-30
-1
-79
36
-21
-51
20
24
-6
-17
14
-14
43
6
12
6
-31
14
-28
25
7
25
-8
6
-41
-43
15
10
-15
-2
-20
68
-5
-11
-26
-14
16
-48
-32
37
-13
5
-2
-26
-25
-13
-8
-13
25
9
-33
-22
45
-22
-10
3
-45
-15
15
47
-17
6
60
40
-9
-34
48
-23
27
-5
17
43
-30
-20
9
18
20
-3
-14
-38
-12
13
16
10
19
-10
-37
23
51
-13
-19
4
2
26
3
23
-4
3
-12
3
45
36
-24
11
13
10
37
38
-2
-23
-52
-31
-39
15
4
12
-16
7
36
-31
17
-27
-37
-5
-37
-15
19
-16
-12
-33
-39
-5
23
8
1
23
-49
-2
-20
16
-24
-35
-10
47
-2
-33
16
-10
-9
10
-62
16
-6
-34
-13
6
6
-48
-13
-12
-26
2
-21
15
18
-57
-7
-52
9
22
-31
19
2
-60
-45
-29
0
-26
41
23
5
5
21
36
-6
-27
42
-20
4
23
39
-20
-33
-55
-9
22
22
-25
-27
-12
-3
10
-3
2
28
-25
58
13
4
38
16
16
-22
-32
23
30
30
31
-18
-16
-3
-35
11
-56
-1
-3
-20
22
-32
13
17
6
0
-46
-28
-18
-2
-19
33
30
-10
-1
-37
14
-5
11
15
-20
-58
-21
2
24
-68
0
-36
16
30
19
5
-29
19
13
-27
-28
28
19
-6
27
52
5
36
17
-1
33
9
43
2
76
-15
-37
-31
-15
25
6
10
-21
-45
-34
55
-27
-22
-4
-15
-33
28
7
-22
3
-23
6
11
7
0
7
3
14
-26
18
16
-15
18
-5
57
21
-36
-1
-13
0
28
-47
-14
0
-1
-27
50
17
-3
88
53
-8
47
9
37
-16
10
8
40
-40
3
-22
31
31
21
4
22
23
-11
4
-60
13
66
-9
0
-6
21
-17
-21
20
-42
-56
-63
1
0
-86
-5
1
-39
-45
-10
-14
-25
-8
-20
-15
-15
22
-12
-13
-29
-2
5
-9
39
34
7
6
9
20
10
-3
-8
39
-5
46
-23
9
2
-32
-4
-6
47
7
-34
44
-12
3
-42
28
0
33
-45
37
13
-62
15
-6
-36
-58
17
42
-36
28
-47
6
-37
-2
27
-21
61
30
4
32
-4
19
-12
11
-12
-20
14
14
-36
-14
-16
55
19
-36
50
-8
7
21
9
-2
-19
35
-11
3
-20
34
-14
-6
33
20
32
-26
-9
23
6
18
45
2
-56
-13
-45
11
-18
0
16
-32
-17
34
42
2
2
20
21
32
-11
27
-34
-24
15
-8
22
19
-16
20
-15
-16
27
8
14
-19
-44
50
-17
-13
5
-26
-54
-30
1
8
27
-25
11
15
-17
26
-53
28
-5
18
-20
-4
0
-22
-5
-2
-24
27
8
-3
27
-4
-24
3
-6
-32
-28
-22
-18
24
63
0
-2
-20
1
17
-20
-47
-19
8
1
-14
10
35
-40
39
36
29
-27
29
-24
-14
16
-6
-16
26
32
39
23
-31
-7
22
-14
10
-8
-3
13
0
11
2
19
26
-32
-45
-15
28
0
-2
-17
20
7
14
-44
-11
13
15
36
45
-15
18
-38
-22
4
12
-46
4
0
11
-11
-20
-37
-22
-4
-1
-25
-10
-18
0
5
35
-50
43
-11
-23
-2
-32
13
16
-8
21
-14
23
-4
-9
2
12
0
14
11
13
11
-6
61
-23
4
7
-3
-12
-24
0
-20
25
3
16
1
-24
-12
41
41
3
5
0
-27
-25
-1
-56
-37
18
-31
1
-27
32
-25
13
-30
-28
17
-20
30
-24
-28
-30
-32
-7
-4
-5
-45
-39
-26
-17
0
5
-37
31
-14
10
-2
-39
-55
-51
-16
26
43
52
-6
-27
-33
-11
52
-39
23
-32
27
-1
39
7
4
2
-8
8
0
15
-18
-1
24
8
-24
-7
18
14
-7
-7
14
-39
58
-16
55
-5
17
-26
20
-43
32
2
35
31
-22
-11
17
-12
1
11
-17
-7
19
-2
6
-6
14
-4
-11
-37
2
-20
-28
1
28
-18
18
24
-34
-38
-14
21
4
-17
5
-44
28
-29
-4
-25
68
10
-43
10
1
36
14
-13
16
1
4
-34
-10
-16
-30
26
-11
3
31
-24
48
33
17
-23
19
-37
30
27
-24
-22
7
-29
-19
-46
42
3
-13
8
10
37
-2
-11
19
30
-20
13
4
13
13
13
-35
3
26
27
-24
-40
-18
-40
-32
-15
0
7
-14
36
-29
-15
-29
0
-13
19
16
22
-11
-19
-55
14
47
-28
11
-11
-16
-22
6
4
27
54
-24
7
-8
-18
-13
-18
-45
-6
-8
37
8
15
1
17
37
-30
-48
51
39
-10
-14
1
26
0
24
28
-17
-10
35
39
-45
-12
39
-3
-33
-4
75
7
21
-24
10
-11
1
-11
-34
-9
-28
16
-29
-9
-7
-4
27
7
18
36
-71
10
0
-28
-19
18
47
-12
-17
18
-8
7
6
-1
-7
7
1
24
14
-7
-20
-46
-7
31
27
19
5
36
-8
4
-16
-7
-13
-65
-60
20
-13
2
2
6
-29
-32
19
9
-12
-24
-3
-12
-10
19
12
13
-32
-35
0
-13
-9
2
-11
-11
3
-33
19
37
0
-10
3
41
-44
24
-13
-22
3
0
34
-36
26
19
-23
-12
-21
4
13
28
-2
-15
-1
-17
9
3
-39
23
11
17
18
31
19
15
-11
13
45
-55
8
0
24
-5
-14
-21
-60
-8
13
14
6
-12
38
-7
42
-12
-8
9
19
27
-8
18
10
-17
38
41
6
-6
-35
30
23
12
-2
31
-58
-15
16
19
4
-17
47
4
-7
12
0
29
28
-17
14
-18
4
-50
15
2
-39
-9
0
-8
24
-4
27
-24
-17
14
40
5
-22
15
7
-23
-17
18
-23
10
-1
0
-1
-19
-7
2
0
-71
-27
-4
-35
14
7
-30
45
-45
5
-21
-18
11
32
18
-3
-8
-32
26
-12
0
5
34
18
-63
-10
0
-16
9
79
-28
2
-35
-13
31
0
-28
27
5
44
-4
-10
-8
-28
-49
-11
-23
-2
-57
27
-25
6
-22
-36
-44
-15
6
19
16
7
-15
-29
-1
23
-43
22
-4
-9
-4
-3
-39
24
-17
5
-1
24
29
-15
-16
-25
12
44
-2
33
0
-23
-6
2
25
10
-24
-22
-5
-4
-42
9
11
-2
-51
-35
-9
4
24
-9
-12
16
-4
25
-30
19
-30
-6
16
-17
-20
32
5
-12
-19
38
37
29
14
-16
1
7
22
9
1
26
19
6
1
20
3
-30
-49
-17
30
21
-21
6
-5
-11
15
-28
-18
30
28
2
1
-7
25
-18
-27
25
22
23
18
9
22
52
-12
-16
-31
-19
4
-7
-16
5
-34
25
7
-21
0
2
-6
-5
33
20
-11
27
42
-24
3
-27
-35
34
-23
7
21
12
-20
47
13
-13
25
13
-4
-7
4
23
9
-16
0
-17
-33
-49
14
-14
19
9
-47
9
-59
-37
-13
8
-7
5
15
-6
13
14
49
3
-13
-15
29
20
-30
-16
-39
-27
14
7
-5
22
-15
28
-35
-1
25
-4
15
-11
56
-7
1
30
-29
16
-34
-16
-11
9
0
4
-13
37
17
-7
-10
6
-22
6
-8
-23
-14
-5
-12
-9
19
-26
22
-4
-23
11
5
-25
9
-6
-22
37
-39
16
-30
2
13
-11
28
7
-2
10
-33
12
23
-4
1
14
-2
19
-26
23
-35
-40
34
53
-10
9
-2
-14
-31
-1
0
2
57
27
-16
8
-26
9
-18
23
-53
2
19
29
-29
2
-19
-29
13
-22
-1
-28
13
-28
-9
15
-13
-3
1
-10
0
0
-4
1
16
34
-18
-18
-31
-10
-7
23
-39
20
-23
43
14
-6
-34
2
25
-1
3
-18
3
25
29
23
14
16
-12
-19
-6
-4
12
-2
-22
10
-11
-47
16
-2
21
21
20
-12
-45
23
5
-25
-39
14
-17
-2
36
44
6
47
0
-17
0
-12
9
-5
-46
21
-11
27
-3
4
26
-32
-18
28
56
-25
-28
22
25
2
-42
-39
15
6
-20
-3
-1
-9
-40
25
-26
2
36
4
3
36
-39
11
-6
27
-53
-22
-11
-4
18
-25
-19
-48
-23
-8
-10
-1
-15
26
20
8
-5
34
29
-28
10
-49
16
15
2
2
-1
45
21
9
-17
14
33
-9
-26
27
0
-4
-16
-15
34
-11
17
-46
19
-11
-3
-17
-25
15
-5
-23
16
-14
4
-17
-38
-37
-30
-20
18
9
36
11
-23
-8
-2
1
-2
30
-4
0
5
10
22
27
29
7
34
-3
-6
24
20
-2
57
-1
6
13
-22
-25
-27
-3
23
-8
-19
8
9
17
10
26
-33
22
56
-29
-16
11
-12
-5
-8
-35
1
7
30
-6
13
47
20
-50
-38
-9
37
15
-12
18
2
53
-43
32
25
-21
22
-26
-2
-8
14
-43
13
-48
-23
47
8
1
-2
30
13
20
-9
21
-12
-8
-1
20
8
-18
3
1
0
22
33
-19
24
-5
-29
-32
10
-23
3
10
11
-11
31
7
-49
-18
7
21
17
10
0
41
-62
-23
26
-27
-15
38
39
-16
16
59
15
10
-29
46
14
7
-32
47
-17
26
-40
-2
34
9
-16
15
10
-39
-2
-6
53
14
0
-24
0
32
-15
18
3
25
13
10
-5
0
-29
22
-5
31
33
-14
35
-6
-33
10
13
11
-13
-40
8
-36
4
33
17
-37
44
-2
2
-21
26
-40
5
-3
-6
-25
24
-36
5
-1
-17
-8
-3
13
34
-37
-47
-12
-7
-13
3
-5
-1
-34
-10
-10
3
12
-23
19
46
-19
19
42
7
0
12
2
26
-1
-7
-22
-8
1
-21
2
-24
8
1
1
-54
20
37
-9
-44
18
-14
-4
13
34
-10
16
40
4
-23
38
-18
19
-31
-28
29
17
-8
-12
-6
47
23
-11
90
-12
38
73
28
-3
-6
3
-23
31
44
21
-34
-5
-49
-51
-38
28
-25
71
0
59
-28
-13
17
25
-51
21
24
-1
-14
10
63
-29
-12
36
16
0
-44
19
22
-29
2
-42
6
62
13
-23
70
-20
-44
18
3
10
-20
18
0
-53
-32
20
9
-32
35
8
39
-15
2
54
11
19
-11
-29
-36
-5
-33
58
-50
-26
14
-34
54
36
35
-17
-44
2
31
-22
-20
-45
32
-72
-20
29
37
8
2
-41
4
7
-46
-21
-5
-19
42
-27
-19
-15
-16
19
-31
4
34
34
36
-11
19
-4
20
-24
44
-38
29
50
49
62
3
-31
-18
32
35
-32
2
2
-30
-55
-19
-20
24
34
2
57
17
-7
-2
18
-43
-8
28
-1
17
-31
31
-7
9
30
-3
0
7
-44
-15
0
33
-51
-3
45
20
-18
-16
-50
-25
13
7
24
-38
45
-4
-5
-56
17
48
10
-14
-6
17
-14
-6
25
22
18
-28
-19
7
9
0
43
4
-48
-14
2
55
-14
-8
-10
-1
40
15
-15
-17
0
26
-27
-24
12
-19
-6
-5
-19
27
11
-39
-17
3
-48
49
-19
30
37
-45
-16
5
-14
40
16
41
-49
8
12
58
-70
14
25
18
17
24
5
7
18
46
-15
-46
19
0
23
0
-5
-12
3
-2
8
-15
-27
-23
35
-6
-3
8
13
-16
13
44
17
35
23
0
-6
22
-16
10
5
37
-25
12
28
24
44
-2
-17
34
-33
-9
-44
12
-21
-13
-22
-18
-6
9
27
31
-25
-36
30
-12
0
8
-7
8
-55
-22
-17
22
-14
-11
-25
-45
8
-10
-23
-48
-38
-7
-16
5
-1
11
-35
-2
20
-2
0
8
10
-4
13
25
-42
-27
-8
-13
6
43
-40
11
-5
13
26
-19
-35
15
1
-14
25
16
44
22
7
-35
10
51
29
-28
-23
22
-14
-24
-33
5
-5
6
2
12
-29
-23
-23
30
18
-54
11
-31
18
-9
-4
-22
-41
-11
-22
0
23
8
-24
-4
24
19
8
8
-4
-20
35
10
-13
-13
-11
-4
15
12
-29
36
-11
8
-34
-1
24
-30
10
21
-39
35
35
-21
30
20
-12
1
23
-17
1
-27
-20
68
-28
-28
19
0
-19
11
19
10
22
14
-24
3
-28
23
-19
-65
-17
15
9
-8
-3
-38
17
-3
27
46
-6
46
32
18
3
-4
58
-25
-38
-2
61
-44
8
-43
-4
-34
38
13
10
25
-4
21
-42
1
43
18
42
-24
14
3
-12
-4
34
14
-5
18
26
15
-20
1
-4
24
58
-18
-7
-4
5
-22
5
36
15
-30
-12
21
32
19
-30
38
-3
-2
-34
-34
1
7
-9
12
-41
-22
7
22
-72
-20
29
6
17
11
22
8
18
33
21
-41
-12
-10
-28
-6
-17
-31
-23
-22
62
-20
-39
-43
14
-31
-12
-53
7
-12
14
-17
8
-6
-2
-10
12
-3
16
0
-16
36
-22
2
-2
50
-23
50
12
-51
32
-4
16
-3
3
28
-35
14
16
-25
-13
-13
11
3
-9
17
5
2
-11
-16
10
-1
7
20
36
-6
25
16
-1
-16
-26
4
13
-24
-3
32
-26
-21
6
51
-14
5
-26
-45
10
8
4
10
-10
-26
14
-4
0
-7
18
-2
15
22
-40
26
-14
20
24
15
-20
-35
0
-17
-17
1
-5
-30
-13
-24
5
-26
-10
-33
-26
18
-2
23
0
6
43
3
32
-35
-13
4
12
-4
-31
60
-25
-38
8
-8
17
-18
33
52
9
-30
-27
2
8
-32
-40
-44
7
-1
-15
-5
9
-37
8
37
18
30
22
17
-31
32
20
2
-26
16
-29
2
18
-8
3
23
-11
36
15
-28
45
-46
-18
16
-13
-13
29
4
-33
15
5
-5
17
5
26
21
17
19
-1
-11
-35
22
-8
15
-34
1
-15
-38
28
-3
-8
6
-9
18
13
3
43
3
26
14
6
-17
-36
2
0
-9
5
3
31
24
8
6
-2
-6
-42
9
-18
30
3
-9
22
7
3
7
8
-12
-6
-31
11
-2
-30
-8
-2
-22
20
-71
49
21
-7
-13
-16
12
-27
-9
-7
13
14
-38
33
44
-12
39
-21
8
15
-1
-10
5
9
-5
-27
-26
-25
-15
-27
22
5
-23
9
-27
28
5
10
2
11
-23
-21
1
6
-2
17
52
4
12
38
75
39
33
39
-5
-47
-1
-48
-1
-10
-5
23
17
-6
32
6
-6
33
-16
-8
-36
45
23
-20
-21
-19
-31
19
-31
12
-4
-1
35
15
-31
39
-10
-11
-17
15
-38
-40
24
-37
-21
34
1
-3
64
19
-32
-8
-42
-6
-4
-3
53
-31
14
-15
20
-3
5
-20
21
1
-9
45
-34
-28
-4
-22
-14
-45
24
3
-10
-35
-11
-6
-20
-11
-18
3
-6
-7
-19
3
-1
-5
9
6
-2
-24
42
39
1
-38
13
-7
-40
-13
24
-12
19
6
-51
-22
-17
-13
14
-5
-15
-16
26
27
-25
-6
40
33
9
42
-32
6
0
25
1
-20
-22
-14
28
18
-14
-45
-46
5
-19
-35
-29
-4
11
-4
14
3
11
-54
-64
-20
-29
-5
-1
-50
-14
-27
-15
-14
-1
-32
17
28
30
1
-27
45
20
9
-31
17
-6
35
-34
-33
-6
1
-28
-16
-15
-16
19
6
23
30
-1
-25
-15
-18
-42
-40
-16
-1
-9
-30
-4
-13
40
24
-30
-2
-12
-13
18
-29
-30
0
-29
-3
-30
-3
-14
-41
-36
9
-61
4
6
20
-6
2
44
-14
-1
-28
26
38
-28
-50
-5
-19
-17
-7
-21
-17
-2
10
-7
7
-33
-43
5
-52
12
-4
24
-9
-4
12
21
37
44
8
30
-10
22
4
-6
-45
-37
-38
47
4
-18
7
-10
26
-32
32
2
17
-47
18
2
41
8
-6
17
-5
-23
-53
-8
-14
47
1
31
-3
-25
-31
17
-61
39
1
-21
13
13
-38
37
-2
-25
0
-8
-41
2
-6
41
10
8
33
2
60
10
-20
-28
7
-4
-28
7
6
-7
12
4
-1
38
30
-34
15
12
16
9
-4
-10
8
-23
24
56
-5
-37
-17
21
28
-57
11
16
-30
12
-55
35
19
-38
-41
-25
-7
-13
-17
-5
48
32
33
-24
-25
-32
-1
17
28
-9
-24
8
-16
-17
7
-1
-30
17
12
-22
25
30
-11
11
2
0
-33
6
-30
25
30
-19
-45
-7
20
22
-4
2
-37
25
-12
-21
-33
1
4
44
16
0
-16
17
4
49
-17
-15
29
8
39
-15
5
4
33
-49
34
-30
-38
51
-15
-23
-1
32
-24
-22
-7
-15
-37
0
-27
5
-4
29
-31
-15
-12
-2
18
0
33
-40
-39
-13
-10
43
14
0
3
-40
0
-16
-28
6
5
-29
-10
20
9
23
14
6
10
1
40
-6
-41
-22
-9
0
26
-8
-21
32
19
17
34
-29
10
11
-26
1
-37
21
28
-12
23
4
28
3
8
-7
-10
-17
-17
5
14
-16
17
-26
-21
7
-21
-34
2
-14
47
3
-14
-31
3
-19
21
1
18
27
3
5
30
-29
16
-3
-18
0
-48
-2
19
-37
-11
-20
-38
34
14
2
43
24
-14
2
0
-37
-28
44
-14
7
-7
25
-30
-5
-3
10
9
1
14
14
10
-1
1
7
8
-38
6
-16
-16
31
-27
-1
6
-3
36
-31
-10
36
2
-14
-26
-29
27
-35
-26
-16
53
34
-23
-14
18
-6
-13
-18
31
-18
-6
-3
-23
-19
2
-16
-12
-10
-12
15
7
9
-4
-3
-14
13
17
-15
29
38
34
-26
27
7
36
24
0
13
8
15
-1
18
-17
22
38
0
-1
27
54
24
24
-47
-42
35
10
5
-40
-33
-53
21
-26
1
-28
24
47
8
6
-33
-9
-7
-12
20
25
48
10
21
6
-27
-42
-16
-1
14
38
3
42
-7
-19
-29
-12
28
-39
-53
-12
44
-2
28
44
-11
-15
-7
12
-6
-28
-19
9
45
15
3
5
-7
30
-3
-26
55
-19
-34
1
-13
-21
-69
29
40
-8
-17
-28
35
21
-32
-33
46
-22
-35
29
35
-34
-16
27
41
-31
14
-8
-1
1
23
-6
-2
15
-23
-15
-39
-9
20
-22
9
-5
19
-14
-34
0
18
-1
-25
5
8
-16
-11
6
-45
2
23
39
-23
3
-27
10
-11
32
3
-7
20
3
38
-23
-41
21
9
50
-11
5
-19
-12
4
13
-5
29
-29
-35
24
-28
-3
-24
2
-37
-5
-10
24
-24
-5
6
8
10
-6
-34
-9
6
-3
8
-28
-4
26
-56
-4
-31
-13
31
-23
-11
-9
33
8
-49
7
-31
12
19
-42
17
-56
-11
-12
39
-17
-5
-18
-28
7
-32
1
-26
-2
5
30
8
-25
-8
3
-20
26
0
-50
26
8
-30
18
-10
12
69
-29
10
11
44
29
40
1
10
-12
11
-21
14
-7
4
-42
1
7
33
-24
-10
-29
7
-5
-35
-45
-13
45
38
-18
8
-34
-32
-8
-29
46
-42
28
18
-45
1
-3
3
21
-29
-3
10
22
6
14
40
-10
-1
-65
-25
-30
45
-8
-11
18
37
28
-4
-30
51
-52
9
2
-30
37
2
-72
-17
-16
16
24
34
-30
-21
-29
54
18
-32
-20
18
-6
-66
-1
4
-36
5
-12
30
-36
40
28
21
19
-21
1
-40
-5
-19
13
7
-31
3
-26
4
2
0
-5
-35
15
-11
59
-24
-27
-8
38
15
-32
54
22
19
33
11
5
11
1
-29
23
12
40
-31
15
11
12
-6
-4
-36
-36
40
-36
-6
33
22
0
19
-17
6
-30
31
-6
-32
1
15
-18
6
-7
21
28
-53
13
-26
-35
-7
8
12
-2
9
-34
-9
-21
8
9
-10
20
-10
-38
50
-8
15
2
19
-36
-18
-7
0
-24
50
-32
7
5
21
15
-20
11
-18
7
27
20
1
-21
-35
-5
-32
-18
-7
41
-12
10
-24
38
-16
-34
-28
6
-12
34
-21
5
13
1
56
-38
15
-20
0
0
10
-4
-35
15
12
16
-28
28
8
0
7
1
7
-2
-12
5
15
4
16
-38
-5
-17
-4
-41
40
-7
35
4
-26
-1
-20
-38
-27
-15
3
37
-52
6
39
1
66
40
81
-18
10
-12
1
-37
-46
23
64
-15
-1
40
-33
-17
33
-34
18
-34
-1
-11
-13
-38
7
1
13
-20
-59
36
29
-21
4
15
35
65
-31
-73
-24
35
-19
-40
-15
-19
18
-28
0
34
2
-40
-13
-21
12
-29
-26
-32
-7
-60
-45
65
65
28
-44
46
-56
18
25
15
0
-9
-31
-7
-10
-6
31
-4
33
-15
-25
35
-4
-39
23
23
-6
26
8
0
5
34
32
-30
27
-27
20
45
8
5
-5
-35
-6
8
-70
-14
-20
-3
9
10
0
-13
19
-29
10
-12
-21
20
-36
-25
13
-3
47
-6
46
-34
2
-5
47
-9
23
-9
62
6
47
27
0
-11
22
-49
-35
-31
7
29
5
-32
10
2
-22
-14
-10
11
-16
7
-3
-5
15
-23
-30
-30
29
-16
4
-13
30
-20
-36
9
14
-4
-13
-3
-20
22
-21
-4
-46
-53
-27
10
4
38
20
14
-26
20
-45
28
-1
-13
7
16
19
9
-12
-34
-5
-4
6
-17
-12
-15
13
-22
-2
3
-36
-32
-6
-9
-12
-22
30
-24
31
21
17
12
33
28
12
24
-57
54
33
-56
-5
-42
-6
8
-16
-8
-12
39
26
-19
33
25
1
6
-49
67
-22
-22
-14
-25
9
0
-50
21
-15
24
7
12
26
-19
21
18
-14
-2
-45
-59
-31
-5
-22
6
-13
-34
67
-18
-26
-9
9
1
-10
-33
-32
-10
9
17
-16
-12
8
15
0
8
-38
18
20
27
-5
-11
13
-10
6
16
-47
-4
-24
5
2
-11
-41
-31
25
21
16
29
-2
32
44
-13
21
-6
-21
27
0
16
5
15
62
52
0
-14
-12
0
-1
22
-23
-8
45
-11
1
-14
11
20
-12
3
15
-29
-25
-37
11
-27
37
-53
-12
-39
-12
-4
-32
-12
4
-56
-37
-24
33
3
-8
27
-24
-12
5
21
21
2
-9
-16
-5
13
-83
5
20
-12
-2
8
-48
-3
15
33
26
2
-15
28
12
12
-4
25
37
-25
-62
7
2
-4
-12
-19
5
76
0
-6
7
0
16
4
-16
13
-17
4
3
-21
-4
-38
-19
-45
-7
-27
40
20
17
0
21
15
22
42
25
-7
3
28
31
-24
20
8
-19
12
26
10
22
-40
-16
0
0
-23
16
26
-15
20
-16
-13
12
18
-8
-1
-12
-29
-4
-33
-24
15
10
-12
13
10
-35
-2
-8
57
-6
7
-12
2
17
3
0
10
23
-6
41
8
-28
-11
16
-9
23
-14
50
14
1
-32
-2
5
-50
-27
31
-29
-10
26
-18
-17
1
-1
56
-22
19
18
-55
-41
5
17
-12
-24
25
21
24
-11
34
-15
-10
-24
-33
18
4
7
11
-1
44
-13
-11
30
-16
37
30
32
-16
7
-5
22
-4
37
6
-33
39
-23
-38
-12
30
21
23
-23
-10
37
-8
14
13
0
-45
-1
-1
-8
-29
12
14
16
0
0
53
11
28
-52
-28
3
3
17
-28
36
-11
-25
-34
15
0
-7
12
25
12
27
5
0
-18
-5
-43
7
-39
-6
-27
-13
20
30
-15
-39
-29
-1
16
15
36
36
-26
23
0
-26
0
9
-29
-64
-7
3
50
-19
9
-4
24
7
35
-8
-21
26
-11
29
9
32
16
-27
-31
42
-24
1
0
53
5
-45
5
0
-44
21
3
28
21
-56
-1
-5
-51
-30
-39
55
-23
11
55
0
20
-9
23
-7
-9
-18
37
18
-35
-21
-30
62
-22
18
8
-23
-23
-49
-6
3
25
37
18
10
9
-21
-44
12
-11
8
-2
39
-2
-14
-29
-1
18
-20
53
-17
4
-4
32
-21
-10
-5
-52
9
-9
-42
16
-3
20
-48
-12
24
-29
-11
7
-21
6
0
-10
46
5
-27
-40
-43
-20
-41
23
35
-14
17
29
-20
-31
5
-3
46
-7
22
15
9
0
-15
55
-26
17
-42
-25
12
0
-16
9
-26
2
27
-14
0
37
-23
-31
-11
23
-57
53
-35
-10
-7
9
33
9
-17
-15
31
-17
6
-10
2
17
-51
-54
18
-20
-21
-38
-26
-45
-12
15
-4
14
11
17
33
20
15
-33
2
22
-20
-28
28
38
0
20
21
-2
8
-32
8
-2
-3
-11
-15
1
7
-38
20
-37
-2
15
10
-4
42
-40
-16
50
13
-13
-18
-7
27
-28
-11
-39
-33
18
-24
3
1
-4
-2
-20
42
6
9
5
-16
-28
-11
-31
37
-38
-1
12
22
16
15
5
-4
-24
0
22
9
8
29
29
-23
26
12
-40
9
-9
-26
14
20
32
-28
-26
15
-8
23
-41
7
2
-32
-15
-42
-4
12
-18
2
6
23
-10
-1
-16
11
-33
-13
39
-8
3
-17
7
-16
-4
0
11
1
-20
14
7
-20
-38
-42
2
10
40
9
-10
-1
10
11
40
14
-46
42
2
-13
-26
-7
-28
32
-33
15
0
-15
-3
-30
-4
5
23
-44
4
-15
54
-39
39
-5
0
7
-41
17
-22
-13
-49
19
-4
-9
38
7
3
3
14
42
3
-16
7
-37
-32
13
11
-35
-15
-12
31
22
-32
13
21
13
-6
6
-30
64
6
32
-6
8
15
-3
-25
-9
-10
6
-33
-5
-19
14
11
0
-15
18
-31
-33
-43
9
12
-17
4
-14
-18
0
4
-21
-4
0
14
-36
25
11
-43
6
39
-7
11
38
-16
47
-34
0
29
2
-8
-18
43
13
3
5
23
-29
4
41
-19
43
-46
19
-16
10
-11
-8
-16
28
19
13
43
60
0
56
24
-1
42
-6
6
-9
-23
9
2
-25
-30
-21
0
35
-2
62
38
21
-10
21
21
40
0
28
45
20
-19
12
-27
-58
-26
-26
9
-33
22
24
1
-10
-25
17
8
3
-47
-21
-10
-24
-31
-46
16
22
33
43
-42
-1
-23
27
38
-2
-1
6
5
40
21
26
13
25
-24
-22
12
24
-37
30
24
42
-38
-3
3
-6
29
7
1
15
-1
-10
-9
-15
-18
3
12
37
6
1
12
-20
-7
-27
59
-20
49
-35
29
-9
0
8
29
0
0
-19
17
10
59
-29
15
-45
-70
-24
46
21
1
1
31
2
-53
11
-10
31
43
0
-24
-6
25
-31
29
-12
20
33
8
12
6
-10
34
-6
27
16
-7
38
28
-20
2
-4
14
-10
-2
-22
18
-20
28
52
13
-6
-29
6
-41
-15
11
0
6
26
-28
-26
53
-20
-18
-21
5
-39
18
-17
0
41
39
38
32
35
-15
39
-54
11
-7
-33
20
35
-16
3
-1
-48
-21
-22
56
-25
33
2
-35
23
-6
39
1
-27
-23
41
4
-2
8
24
29
-46
6
47
13
-34
-17
-13
31
38
2
26
-12
3
42
0
-29
27
49
0
31
32
1
-5
35
-44
10
25
55
-17
1
2
18
-51
3
12
45
24
-38
8
35
32
21
-18
33
-4
29
15
-2
3
11
33
-15
-7
-13
-37
-21
21
-3
-20
-14
19
-28
17
-8
0
-7
11
-6
-33
8
25
-24
0
-24
-30
44
11
9
32
22
22
19
-30
-46
45
-4
20
-12
-31
9
21
19
-39
-13
-26
-15
22
4
-45
22
12
-6
25
4
-18
-20
-15
21
38
17
-7
-7
24
1
-2
-38
-15
55
-44
0
26
-38
-29
13
-13
-26
17
38
5
-27
2
39
20
-8
-5
33
0
-36
-3
58
6
1
20
5
-11
-13
-42
5
18
-8
0
-37
18
-16
33
12
-27
18
27
-3
43
45
35
-15
-49
-6
0
-58
-27
0
11
-42
-33
-21
-16
24
-24
24
0
-31
-10
-14
4
16
68
-12
23
0
-4
13
-13
-5
41
3
-42
-2
2
-9
-17
20
0
25
-22
-37
-35
-26
26
5
18
-2
31
3
-44
-20
-11
14
-48
-19
28
20
-7
23
13
13
7
2
26
-21
-60
-38
14
-3
-26
8
-16
-21
-38
-18
-2
-33
-13
-11
46
-2
16
0
0
5
-11
-12
31
-15
2
23
-40
13
-32
-19
0
27
25
29
19
3
-4
-25
-17
1
14
-12
3
-46
61
-67
2
-43
5
33
-29
-12
11
7
11
31
-23
-24
-5
6
-20
2
-26
23
12
43
20
16
15
0
-22
-41
-43
9
25
19
10
-29
39
-15
-7
27
-27
-3
-21
4
-25
-23
17
43
-34
6
33
-39
34
2
-7
-13
27
27
-7
35
14
27
-43
35
-22
-27
-21
2
13
8
18
-21
-29
4
31
-34
38
15
-20
-45
28
22
10
0
0
7
0
21
16
18
-4
-10
36
10
-29
0
-2
-11
-34
48
25
24
0
-39
7
33
8
-16
4
-2
-14
24
32
10
24
7
-16
20
-21
-7
63
-22
14
-46
-25
-12
21
45
4
-54
-6
21
19
60
7
-12
22
-17
-3
-43
36
11
24
-14
-27
-3
8
-58
38
37
3
-6
35
-43
-61
3
-20
9
-38
47
-16
27
1
-11
29
63
30
-31
-19
17
7
-22
2
-1
-35
39
-5
5
48
8
16
-36
-25
33
4
0
32
-6
9
15
47
13
-16
-5
14
-32
16
20
2
19
23
49
32
-30
37
-14
18
28
-15
28
-41
-3
18
38
-62
37
20
38
1
10
26
14
1
26
9
-26
14
13
-8
-39
-10
-26
14
-1
59
5
-6
-28
8
-16
34
-3
7
-27
-12
44
-4
16
22
-9
16
5
23
24
35
-2
-10
34
-1
37
-6
39
2
-14
-51
19
-9
-10
-37
34
4
13
-4
-32
13
31
-27
20
-20
-9
2
-36
-2
8
6
-42
-21
-30
-3
10
19
41
3
14
-41
18
-34
-14
-9
-11
-49
13
-20
-13
37
17
34
27
33
8
14
13
26
26
-38
25
-15
-27
-4
0
-6
-35
31
22
27
4
-1
22
-17
30
-32
38
-34
29
-35
0
-7
36
14
21
24
-38
-1
-13
-55
6
15
29
-30
20
3
23
-7
16
39
0
17
42
-19
34
-30
8
-1
5
10
-4
-15
3
-25
22
11
-42
-8
16
23
-25
-15
47
-37
4
0
-5
-41
2
-31
-5
-18
-37
-38
3
1
-11
0
10
12
-5
-5
-8
-15
14
25
16
36
-19
-34
-26
-32
-31
-27
-33
23
42
2
25
20
-12
21
-6
4
-40
-14
-8
-18
-3
-37
-5
-36
-10
0
17
-27
13
0
-22
-3
-23
-13
12
36
54
-7
-10
24
29
3
-31
49
9
-28
-13
-2
5
-7
-18
5
8
-31
-33
6
-11
-31
0
-39
2
0
-17
28
6
-5
28
-25
13
32
18
25
25
-17
1
-40
0
28
13
-5
28
-20
14
-10
-10
33
24
6
-26
-22
5
14
10
21
4
-9
39
54
21
38
16
-40
1
-23
-18
-63
20
-24
2
-26
-58
23
0
8
-38
-25
0
-3
7
5
44
-2
-13
11
-9
14
29
-3
-10
18
12
3
-10
14
-27
10
17
-14
1
-34
-1
-4
10
-16
-20
-8
-25
13
-34
7
13
1
-28
35
13
-9
2
-3
-32
-46
-16
5
-3
24
-20
-16
19
-24
-15
-28
5
26
31
52
27
-15
-26
10
2
20
-47
13
27
-32
25
-9
56
6
-4
38
-8
16
2
13
14
-50
-25
12
15
4
17
-9
30
-22
16
-23
-10
3
-8
10
-20
-13
-17
27
35
-34
-18
12
34
-8
-25
-14
-23
-23
-3
7
-7
-7
27
7
4
25
8
13
-17
-2
0
-3
44
-17
17
-9
69
23
1
27
18
2
20
24
45
68
24
-8
58
15
-19
45
-4
-5
-18
31
-18
-17
-7
10
-2
-39
17
26
-9
1
8
-5
25
27
-22
-7
14
-1
0
-43
27
0
43
16
20
-17
-23
40
11
8
-4
14
2
25
-20
24
6
11
19
29
7
-36
12
20
-10
12
62
50
17
-71
27
-8
-37
-15
19
0
34
-41
6
-19
19
7
23
18
6
-25
-8
3
-44
6
16
-7
59
0
-41
-11
-7
-52
-20
-9
2
-23
-4
-40
-10
23
-17
27
-16
12
35
18
-32
16
-43
-6
-14
6
2
-10
-9
-20
7
7
26
-5
-2
55
-1
26
26
18
16
-3
25
-9
-49
2
7
-23
-13
-12
-43
-29
5
-50
-32
1
1
-11
-22
41
-25
-27
-20
32
-28
-17
-29
-6
11
4
-2
16
13
-28
1
12
-36
-27
-23
-23
8
-43
-26
-23
-40
-13
-4
-29
14
-17
-28
19
17
26
19
-30
-29
-11
1
9
-19
22
-8
33
-12
-8
-3
7
-9
-44
3
-25
-11
6
-31
-20
-11
-20
-14
-29
18
-38
-10
-5
-8
-34
-9
45
48
21
-22
-7
30
10
0
2
-28
4
46
35
-17
0
-44
-13
11
-9
-22
38
-14
-23
0
-18
18
-17
7
11
23
18
18
-12
0
-28
9
27
-4
-43
16
-44
23
27
40
5
8
25
-5
25
24
-31
1
0
-10
-7
15
3
13
-4
11
-14
-5
0
1
22
49
10
33
-16
-28
-23
0
3
13
-6
-30
-23
-17
-10
-30
-64
-10
4
25
3
48
20
-15
43
-1
14
-22
18
30
-34
-8
-40
-14
1
45
21
25
4
3
-13
-5
-27
16
22
-59
-31
0
59
-43
-20
-17
-24
-44
-16
-42
-59
-39
10
-28
-27
-19
8
12
10
36
42
16
-20
35
18
-25
49
-31
0
4
-32
-10
0
35
52
2
-40
5
-11
-33
-18
-23
19
-24
43
40
31
3
-12
-33
14
-13
-88
19
30
19
-35
28
28
19
23
-62
-15
-38
0
-48
-29
-36
-64
35
-64
-45
-20
7
0
10
27
-6
17
12
58
-16
18
-35
1
-19
-13
5
21
-1
8
18
-39
-30
-24
-36
-2
-30
9
3
-21
-3
11
27
2
-10
52
0
0
-56
-25
29
5
-45
55
23
18
-1
17
-17
8
21
-16
40
17
12
44
20
31
-10
22
3
-13
-8
-8
7
33
-9
-10
-15
-59
-18
-45
7
-12
-1
24
8
3
-1
11
27
-5
-22
-2
-48
35
36
-12
3
35
0
-51
20
-1
-43
3
23
-11
-24
15
29
13
46
-12
31
17
26
-44
-7
-63
16
0
-8
-20
26
-47
16
23
19
0
-13
-6
-36
-32
-8
-14
34
11
1
-18
0
4
7
-4
-12
22
0
-15
23
5
7
-6
26
32
21
-36
34
8
18
7
-29
6
-6
5
-31
1
-3
-12
4
40
-24
43
0
3
-4
-15
-2
3
-13
15
-14
40
-28
-24
-11
13
22
18
7
30
-5
50
-30
8
-10
31
14
20
6
12
9
-18
0
7
-33
-2
3
-18
0
6
-2
22
17
7
-2
10
-22
37
-22
-1
1
-10
-15
70
53
21
-39
8
-8
-21
12
-29
3
37
9
14
-13
-10
6
-22
-28
-26
22
14
-1
0
13
-17
-38
-30
32
-15
28
-5
-9
1
-14
-27
36
-21
-13
19
51
-12
9
-19
-17
-5
17
18
-6
5
-10
-2
3
-7
-11
6
20
-7
-7
8
11
-41
8
-8
-12
11
8
-7
-21
-13
-1
-5
-8
-40
-18
0
-33
26
-35
24
25
0
-41
18
14
-5
-21
24
-27
18
-5
-17
-35
27
30
25
-21
20
20
51
4
15
-5
13
19
16
21
28
-23
-6
-9
-11
5
-5
-28
9
0
22
31
-25
-3
44
-20
-23
-45
5
-37
-4
-28
-25
-26
9
24
-30
-32
8
18
10
10
-30
-34
44
-29
28
3
-22
-4
-29
-14
16
13
1
-8
1
17
-8
1
14
-23
-30
-5
14
-14
-12
10
21
10
3
-7
3
14
8
17
-24
26
20
-40
33
-37
31
-21
-19
7
14
-35
-26
-36
21
-27
-16
0
25
42
1
28
27
35
36
-31
19
16
-45
32
5
-13
31
9
41
16
-17
15
-9
28
-22
35
4
0
7
24
-18
-35
12
13
22
-19
-10
29
20
15
-33
5
-24
-28
5
7
19
54
-37
10
-16
32
-45
8
55
35
16
29
-26
-29
-25
-11
-29
20
-17
29
-22
-23
-23
-5
-32
-22
6
9
-16
-23
55
-32
2
-30
30
-28
-1
10
-20
-30
19
-28
-23
-23
4
4
8
1
-16
14
-26
-55
6
27
33
4
19
20
-40
9
5
22
10
19
16
-20
-5
-20
-8
-10
15
36
1
0
-6
1
10
18
-14
25
0
15
-1
-2
8
-3
-23
-28
-19
-17
-43
-40
23
-12
-3
-28
-18
17
9
18
6
-24
34
-12
-30
33
31
-1
66
-28
8
-21
-40
-17
-20
-2
20
-12
0
-20
22
31
28
8
25
19
1
-23
6
-3
14
-46
14
-16
-42
21
-23
15
4
0
2
17
2
-14
11
-21
6
-30
-8
-54
-19
6
-23
19
-10
20
11
-1
3
17
19
30
-29
-20
35
9
-1
-15
14
17
13
30
-8
0
-12
-19
8
-26
-19
37
5
0
45
-35
15
16
9
-19
-56
42
-11
17
-18
-2
-33
-24
-6
5
26
-3
13
-15
-5
1
-45
40
-47
18
2
11
-21
36
16
22
-5
-13
-10
55
7
-20
-31
-35
-32
1
28
15
22
-4
-29
50
26
-7
12
-26
-29
-24
-13
24
0
15
-20
9
-15
-4
-26
2
25
-20
22
0
34
61
-34
-15
-2
-27
-11
-23
-6
-56
-25
28
11
-8
-9
4
26
19
-23
34
11
-26
1
19
3
-6
0
-17
17
-26
24
-16
15
-36
0
3
-1
-53
-33
7
18
4
21
7
-20
42
-41
-29
39
4
-38
-3
-37
-42
0
-24
38
28
28
-31
-38
11
17
-2
-13
16
16
25
-26
-5
27
-8
6
28
37
-23
12
19
-1
20
-15
32
-51
13
-7
-11
10
-26
30
3
5
35
-5
3
9
-3
-19
52
32
-34
14
12
-19
34
15
-9
-27
-31
-14
40
6
-20
13
-2
4
2
-25
-54
9
0
-21
2
8
32
26
-4
21
-16
-33
13
-29
7
-50
44
35
-5
-16
-20
-52
-28
41
27
8
5
-8
-4
-22
4
-35
17
-41
-15
-9
0
-5
19
24
9
25
18
-29
-25
41
36
-41
28
-23
-19
-2
11
-43
1
-11
-22
-35
-59
31
0
31
-18
-18
-16
-1
4
-34
29
-18
-5
-8
-6
-4
-23
25
15
-22
19
9
48
10
46
-2
50
44
11
7
-10
15
6
-14
-1
11
27
-2
-36
40
14
-9
16
-8
9
1
46
3
4
3
-11
-12
17
0
24
19
-26
-21
-6
-36
-10
-2
19
17
-32
-23
-1
-6
17
9
15
0
-13
-4
-44
-10
-36
-20
32
-11
-16
22
1
-3
-16
-16
0
14
19
-19
26
-22
6
-3
6
-13
-34
4
-34
10
23
-3
5
7
26
-23
-39
15
22
-32
-36
15
4
28
18
-2
-41
0
-15
-5
-3
-2
13
14
-34
11
8
0
-13
14
22
10
18
9
-29
27
22
1
-5
8
32
7
21
-12
20
-7
-22
-14
-14
-53
20
-15
40
-10
0
-4
-14
8
-10
6
2
12
-10
-1
21
11
15
-25
17
27
-49
9
-28
25
-5
28
9
-36
-6
-20
-18
26
-7
14
-26
-5
49
13
5
-11
-16
16
-16
13
-18
-29
36
-2
39
1
-25
57
-12
16
-15
12
-52
14
-43
-5
10
-22
16
16
43
-21
-30
-35
21
-2
41
33
29
3
-22
-24
14
-7
13
-12
32
-15
15
-34
-17
12
4
0
30
34
-25
-19
19
-41
-37
-13
-26
5
18
-13
19
0
41
19
-34
-20
16
3
-37
-27
-28
1
63
-21
42
0
-27
-20
9
-4
-27
-14
66
28
16
8
-15
-12
7
6
-8
-6
27
-13
-22
-6
-23
31
30
-12
-5
28
-21
-5
29
-10
21
10
-20
-16
-12
-25
-5
0
21
43
-23
28
-2
-7
0
-1
10
11
16
25
-23
-22
-32
-26
-32
-5
37
4
16
49
-57
-13
-10
28
27
12
-39
20
0
10
0
-28
-47
13
5
7
-20
-3
15
25
3
0
-4
38
23
4
5
-20
34
8
-2
19
23
-7
12
-45
-7
-45
4
3
10
16
-34
27
34
-35
-17
1
-19
32
27
31
29
13
-16
-6
-20
-8
0
-42
-9
11
32
25
-30
-21
25
-13
10
38
-14
21
9
10
17
-26
-20
13
-10
19
-29
29
-6
-4
-23
-2
19
13
-9
16
-25
-46
-20
8
-16
-52
29
-3
-29
-7
-6
19
-38
12
19
32
-5
-14
-29
-1
-17
18
-50
30
-8
20
-16
-6
-11
-10
-12
37
26
14
2
-3
-19
21
26
25
-34
12
-30
-12
-39
-8
21
8
-22
16
-33
-2
9
-1
-19
11
20
41
-30
32
39
15
19
-33
18
0
-19
27
-35
-1
24
32
39
42
-2
-28
29
9
5
11
-5
-48
-26
14
-29
-4
14
-8
23
1
31
-74
34
-48
-39
-46
-26
-11
10
-51
1
6
-14
-10
-27
-14
-19
-21
-12
38
29
-21
-15
-29
17
7
-31
-32
-10
11
-8
-43
-41
-14
-46
3
16
-12
33
-30
43
-1
-14
21
-6
3
-18
0
-20
20
17
16
-37
-32
-3
-28
-6
-6
12
-30
48
20
-19
-6
25
32
-22
-21
53
-3
-29
-23
-23
-18
-17
-36
-56
8
-34
8
-39
-15
26
-11
-17
-40
11
8
-17
-36
16
3
17
5
22
-63
6
-19
9
59
0
-30
4
0
15
23
18
17
38
-27
2
-15
32
5
0
-10
10
-48
3
9
-18
-51
-12
-15
7
-18
-29
-9
-19
-17
-6
25
26
-7
-28
23
14
0
40
-2
-3
-53
-6
22
30
0
21
-6
10
34
-5
17
-16
-5
-2
-3
-36
-10
37
15
27
-12
-38
6
23
3
21
-31
-11
-37
47
20
-9
30
26
-1
18
2
9
29
-10
-7
-21
6
12
-29
44
-29
-14
-8
13
-4
-29
18
47
-22
-19
0
38
-20
-17
17
27
-1
-37
-4
-17
8
31
78
33
-22
16
16
4
-8
14
11
-9
-21
15
-23
-25
22
15
39
-27
51
11
26
-25
14
24
51
0
0
-54
-9
-30
-37
-17
22
-22
-14
-29
-49
0
-30
-67
16
19
-13
10
36
-38
26
29
43
8
-23
-48
-45
-12
-13
-4
-20
-8
-25
-9
-3
12
-10
38
36
14
-41
16
-38
-47
-25
-4
-6
-29
-23
-35
41
35
14
-37
17
32
3
14
7
-13
-29
-37
-12
-31
-57
-21
44
-45
40
-26
26
-74
-27
22
9
-5
-10
-27
0
32
25
-29
2
-24
10
5
11
-19
-38
-5
-30
-12
8
-20
-21
-34
20
0
-24
38
15
-36
5
8
-28
-27
16
-16
-4
9
-18
-15
-4
25
26
24
14
-3
5
-15
10
12
2
-9
-13
0
-1
15
46
-15
-3
-42
-2
41
-15
4
32
-6
-33
14
3
35
-24
-5
4
34
-44
36
-12
1
37
-31
-31
10
-34
-23
18
11
-35
-13
20
41
24
4
0
-16
5
16
7
-24
-1
-5
-25
7
-17
17
2
-30
1
-17
-59
2
-24
-16
0
40
33
-14
-14
-5
25
-7
31
12
-17
4
13
45
4
-16
-7
24
22
-35
-2
-1
42
-29
5
-21
27
-42
-15
33
26
6
-9
-2
-7
-6
-12
11
20
5
30
-28
17
-18
-15
23
-15
-4
-9
23
-9
-20
-21
-2
0
-23
6
-31
3
13
15
-13
15
12
-42
19
-7
-67
26
-30
-21
24
-17
-3
6
-3
-3
37
-10
-27
-11
-13
-7
3
34
-1
10
6
-31
-28
20
-3
10
-35
2
0
-4
-13
25
-33
37
-26
-11
6
-8
-13
44
-1
-16
6
34
10
32
-13
14
-6
-46
-30
-8
28
-10
41
42
39
-16
30
-35
-38
-12
26
-18
-45
19
-36
24
-39
-39
3
-23
-40
27
22
1
19
20
-29
8
-4
-4
-31
15
18
9
-9
26
-27
16
3
16
-13
-7
-23
41
-5
0
-1
27
40
49
28
-13
-3
8
24
-32
50
16
20
17
0
4
-10
-21
-34
-25
23
-39
-11
-16
-2
4
-1
26
25
-21
0
32
-33
6
17
22
13
8
-39
-39
10
24
22
0
3
13
-28
3
-12
-22
5
29
-59
8
20
-21
-18
-35
-22
4
38
-14
-27
-26
-26
12
33
27
36
-12
-12
-8
7
5
-10
0
-37
-8
-11
20
-32
-13
8
-4
29
10
-13
-9
20
25
6
0
27
-35
-22
4
-30
15
30
39
-36
35
11
-30
73
88
-21
54
-8
47
20
-16
-6
20
8
14
-2
35
12
-3
33
-10
-1
-16
5
-31
-2
-5
-19
20
-34
17
-13
-13
11
-16
-44
36
-7
43
-48
21
-15
16
-15
1
20
-30
25
1
-39
35
8
-8
-17
2
23
46
-38
-17
4
6
-8
-15
0
-1
0
15
14
5
32
19
35
40
-32
37
-32
2
23
-21
23
34
27
18
20
-15
31
14
-8
38
-15
0
-26
0
35
-25
6
-3
-5
4
-16
-8
-21
-50
-40
1
0
-54
-39
-7
18
-31
-39
21
-41
2
61
4
53
-9
-1
-4
-45
-19
28
16
11
-9
7
16
-29
-4
2
-40
14
3
-30
-11
18
8
18
-13
13
21
13
36
-9
24
32
7
34
-14
2
-27
-1
-28
-5
28
11
0
-10
-16
6
-19
-55
25
3
-12
3
-9
7
-11
-16
0
13
-49
-23
-18
-61
8
53
-21
15
-8
-23
18
-34
-31
-14
6
47
-15
-12
-18
-34
29
42
-19
-13
-8
-33
14
38
-18
14
-15
-13
-1
-21
13
-44
17
-22
-3
-18
-21
-53
-10
-15
0
3
-5
1
-35
-24
0
-5
-42
-18
-32
-19
-6
2
-12
-35
7
25
-2
0
-7
-8
27
51
18
-23
35
-38
-1
-10
17
20
-48
23
23
12
-28
5
-33
-7
-1
27
-33
10
18
-38
3
10
-4
-48
7
0
13
11
16
-25
4
2
28
15
-17
-15
-69
-37
-31
20
-22
-22
43
-39
-29
-48
-15
-25
-21
14
-6
22
52
-25
-2
11
19
-24
13
-20
-13
1
-7
6
1
22
-12
3
39
10
7
-4
33
-1
-24
-12
11
17
-32
18
-27
9
-17
-39
16
-42
-9
3
15
38
0
10
13
-29
6
0
6
-38
-4
32
1
5
13
11
30
7
21
-23
-12
-38
47
-7
0
-4
0
-3
11
-25
35
-12
-10
1
0
25
21
45
19
-22
16
-3
33
21
37
0
47
43
40
-10
-1
22
12
-31
38
49
29
-6
-23
16
-9
-14
-4
-18
28
17
-4
-13
-1
28
32
6
51
39
-3
7
-27
-20
-11
11
27
24
2
-7
23
-45
-16
2
17
0
-14
21
-32
2
27
16
-12
46
-28
4
-30
-9
-3
-21
-15
-20
-32
23
7
39
4
19
5
-6
30
9
26
-40
37
4
-43
16
17
5
23
-26
28
-31
-20
-29
-40
-5
-14
7
-17
-16
-5
-16
48
11
24
-26
-13
-4
-27
13
28
-32
-29
-22
-11
41
-40
-8
-19
6
-30
20
-25
40
6
-15
-8
-32
19
-44
4
0
-46
1
-8
0
0
-23
-19
-11
0
-8
-9
-19
-4
9
16
35
32
39
-35
-10
28
9
-15
30
33
-36
10
-5
-3
0
27
-17
-53
-1
-5
10
-1
23
-16
18
-35
44
21
-31
-30
21
-22
6
42
21
1
28
-2
18
-29
35
-32
-30
-18
18
-11
-14
11
22
2
-5
-12
-26
39
-2
-4
-30
24
16
9
-21
11
-6
-6
16
16
-1
-22
-42
34
-40
-11
8
2
-33
-17
3
-15
43
-31
-16
-11
2
28
32
-27
16
10
-22
-14
53
-9
22
-2
-10
-26
-24
7
1
8
14
0
48
35
-18
-3
47
-23
33
-13
0
5
1
13
26
2
-14
10
7
43
-10
-39
-3
34
-26
-34
-13
17
11
9
15
-5
22
-8
25
23
-11
30
-30
-4
-14
4
-9
-15
-29
-8
6
-4
-2
9
-9
34
0
-48
31
13
-27
-24
15
-13
-23
30
19
-22
30
-46
-26
-36
-20
-17
38
-6
30
-64
-25
0
-20
-34
-26
8
0
-18
-10
0
-15
-31
-6
-13
34
-43
39
-6
7
23
-11
31
-34
21
-10
-21
16
-9
15
11
12
-7
-37
-1
-47
-18
-11
7
17
-21
3
-10
-5
18
-40
11
-25
9
-40
-27
-4
26
5
-4
28
-31
14
2
-7
-12
-28
4
-11
-8
26
-32
-38
-3
5
14
-27
-31
-3
-2
19
19
29
-9
20
22
2
-11
32
-10
43
15
16
37
10
-8
1
0
-47
11
20
-23
1
-42
32
-19
-34
18
-31
26
-9
-9
-6
-23
-9
15
-4
4
-5
-5
37
0
7
0
17
10
-15
0
-15
-5
16
-40
25
3
-24
22
-1
-12
4
-16
-29
6
-8
-23
31
-34
-49
-2
27
14
-23
-33
4
17
17
-18
22
-19
-24
7
22
12
-22
9
23
-25
-3
46
16
-19
-18
43
52
-24
-29
27
25
-25
5
-16
-2
28
5
49
30
-30
42
9
21
-1
0
36
-3
-5
21
21
-6
1
54
0
-37
65
-30
-37
21
26
17
-42
38
-15
-1
18
-4
-34
-17
1
-20
-11
-2
10
0
3
27
-61
-16
10
-4
-34
-9
-39
35
11
6
30
17
-34
-10
26
10
4
-9
-1
22
14
37
39
-9
32
-5
35
-21
-1
-21
-40
-4
-21
-6
-15
-17
3
22
-5
-19
-21
-26
18
4
17
52
-10
13
-16
5
-20
-16
-9
-1
-1
20
-9
34
23
19
31
26
-10
-21
-27
16
7
1
13
-12
1
-10
0
32
-29
-20
38
1
13
1
-20
5
16
-23
8
19
-30
8
-28
2
-10
6
4
13
-30
-9
-18
-40
-52
-25
11
-20
12
1
-14
-43
-8
10
23
7
-24
-17
0
17
39
-6
13
-37
0
40
-14
-3
27
-17
-1
7
55
0
19
-3
-35
-5
-28
-26
5
22
45
-6
38
-10
-36
-21
1
-26
20
32
43
42
-15
3
-1
9
-38
-16
27
12
27
-55
24
-4
19
23
-27
16
24
-3
-5
-13
-17
-6
19
-13
28
44
26
0
-38
-17
3
51
-1
-13
43
-29
-4
-34
-43
15
-57
18
-45
0
32
-35
-53
-42
-56
-1
8
-26
31
-15
-7
-14
21
-21
7
38
5
69
21
-55
41
-37
20
47
19
26
-2
19
-20
-30
-22
63
-65
-29
35
-23
-26
17
45
25
-8
8
23
-11
-63
-50
-55
-22
22
32
-39
11
-23
-6
-18
-6
53
-38
26
34
40
-35
0
-6
2
-6
-24
-42
-1
28
-20
19
27
31
-3
-5
40
8
9
-3
1
40
22
-28
-17
14
-7
-36
-27
0
16
2
-26
-22
-27
39
10
2
4
-7
23
0
20
35
-17
-11
-18
15
-25
-18
6
-23
-34
0
-29
48
-31
36
-16
-2
-48
-54
-31
7
1
13
32
-30
-24
10
-13
-7
5
-45
66
12
2
-9
-5
18
33
-56
-34
24
19
32
-11
8
-3
-16
25
37
-18
9
9
-22
-17
23
6
-20
-33
-21
-9
-8
6
-35
5
52
32
31
21
-17
27
-3
-53
3
18
-5
26
-32
33
6
10
-33
8
-20
-33
15
-12
12
21
-11
-29
22
4
27
-11
-36
0
28
-17
-10
7
-23
27
6
-34
-10
12
-17
-9
-5
-29
-29
-6
-14
37
-20
6
25
0
29
-9
23
-49
-14
-24
12
-9
-30
-34
-6
11
-50
-31
-19
-27
-9
8
-4
-17
-70
-13
-11
-68
-5
41
-42
26
-20
-6
-11
-4
-30
15
22
-61
21
-60
5
-10
-39
-13
7
8
2
6
46
-40
22
1
25
-3
12
0
-26
32
24
15
-16
-5
4
32
1
-3
18
-19
-24
14
-6
-11
-47
-36
-9
27
52
12
8
15
8
12
-13
-5
-8
-18
54
1
-21
-31
10
-10
6
10
-18
-18
-23
3
-9
0
-10
16
0
-21
-8
0
-20
18
-20
-7
10
21
-33
0
21
-21
-26
-27
1
10
16
-42
-1
6
-23
-15
0
-8
-4
23
0
1
39
35
-16
26
-6
-30
-20
4
6
17
-25
12
-33
-12
47
38
48
9
-18
32
22
44
19
-1
-27
-26
-26
-35
14
0
97
45
12
-15
14
27
14
0
9
22
3
29
-39
-43
-49
38
-10
22
55
-32
-24
29
-46
-47
-28
11
-19
16
3
7
16
7
19
24
-17
-43
-32
-7
0
8
12
53
16
-3
55
-18
-14
-26
-21
-27
0
-33
-18
-31
-32
17
35
-34
11
14
15
27
-22
-10
2
38
-35
-18
-17
32
0
-10
-1
-6
9
42
15
22
35
29
35
-11
14
36
39
4
18
-14
2
-2
-18
-25
14
-15
8
8
11
-22
-26
-43
2
-28
-18
-8
11
31
-12
4
23
-17
-39
-6
15
15
36
25
0
16
-10
20
3
17
0
-8
-16
23
7
-15
1
21
-35
4
42
-23
3
-46
-36
-1
-35
-22
16
-46
24
-5
-7
-7
-31
-26
11
-28
-16
-49
55
-14
-3
-1
-4
10
-25
48
15
-18
-23
-12
3
16
-42
-10
-34
42
35
-7
4
26
32
-12
34
-13
3
2
5
3
28
-1
5
28
-22
-7
-33
-26
48
17
52
31
3
-24
-28
-39
-31
-7
14
-13
-39
32
29
-46
-30
-52
-22
24
-19
14
17
24
-15
-3
-14
-1
20
-27
14
16
19
7
-5
-18
1
-12
7
10
8
-15
-28
34
-2
-8
24
-2
30
-40
0
-23
-10
9
39
-5
30
-36
34
-27
5
-13
-9
9
3
15
21
25
33
-15
-2
29
-2
14
23
-24
-24
42
-33
-27
37
54
4
27
-3
48
-19
-68
-26
-2
3
12
24
-22
5
-28
35
31
-7
32
-31
-23
18
-5
6
-23
-19
2
0
-17
-12
-32
41
6
-36
33
-26
26
19
12
-4
17
-30
-1
-24
-7
17
-19
-6
-13
5
-21
23
-30
13
25
-1
38
-9
28
6
-13
-33
-27
6
19
46
19
-32
-39
-3
6
30
17
3
-4
-27
17
36
-33
-14
0
46
-15
24
20
-33
0
34
26
-26
33
1
40
3
4
-15
-1
-9
40
10
-19
8
-13
8
-4
-27
-2
-24
29
4
-43
12
47
-11
-9
39
19
-11
35
25
-34
-8
64
13
-9
24
35
10
5
39
-3
30
-5
6
19
-11
-25
44
-24
11
-10
-4
40
45
-2
-24
28
-13
3
0
30
-20
-12
-14
9
-30
9
31
-46
-5
20
10
5
31
10
-14
-17
-3
31
20
40
21
9
-22
-13
22
4
-10
5
1
39
-23
-25
-8
13
23
-15
18
22
-49
36
18
-7
-17
-12
2
-37
-18
16
-28
0
11
29
26
-5
14
-23
6
-18
-14
5
19
-33
-2
-3
1
-26
43
18
-14
15
7
-15
-14
-42
42
25
21
23
-26
-2
-53
-26
58
30
-5
6
-31
-43
-10
16
0
-35
28
2
-44
-9
-41
52
5
1
-38
1
48
32
2
9
-10
24
7
22
30
3
0
-7
-9
-33
-4
22
31
20
3
25
-25
7
8
-32
-14
13
-21
30
-11
-5
-18
-26
8
11
-16
-15
13
36
-6
-44
-8
-25
-6
43
1
-30
-10
5
-67
-44
6
-18
24
4
22
-7
7
-18
-15
-39
-20
24
30
14
-6
24
-11
-1
33
14
-18
-15
-38
-24
-9
13
11
19
39
6
-5
-1
-25
14
46
-26
-9
4
-22
3
0
16
0
-9
39
10
25
4
-10
5
-18
-8
21
-3
-21
-7
-24
-5
44
18
-34
-14
0
-51
-20
-6
22
-26
-9
4
37
-4
-15
-9
-37
-18
-3
18
-21
-23
-25
31
7
7
-10
9
29
33
-69
-6
-44
-31
16
-10
8
56
-5
6
-33
-23
9
40
-8
29
-39
-3
-17
-5
-1
2
-47
12
12
-4
-6
22
33
40
17
-8
4
-49
-20
-40
0
0
-38
-39
29
-15
-16
-1
33
25
2
-19
7
2
14
8
35
42
8
43
6
29
-16
-2
37
-10
-8
-23
26
-2
-41
25
19
6
41
11
-39
-34
34
5
1
-5
-24
-15
16
-3
-9
-29
25
-4
-13
-36
-6
-20
-19
-55
-11
-35
-9
-2
-22
18
-50
-7
21
-3
-42
9
-26
-34
25
-25
-9
26
-9
0
0
37
-4
54
-15
8
-34
-38
-22
-12
6
-43
31
-22
-4
-15
-14
10
-12
0
27
-42
-48
53
17
-5
7
-20
-2
-7
-2
-42
-2
2
4
-64
25
31
-9
-1
-6
-1
3
16
-11
18
-39
59
-18
-31
-19
-2
11
-8
-58
3
-41
-21
24
35
17
-24
-11
-67
18
5
4
70
7
-40
15
23
-22
-48
-24
0
12
-39
-15
4
-48
-16
48
24
5
-35
23
-7
-27
24
5
-13
23
-16
-17
-23
-18
-7
42
40
25
0
-4
-43
13
35
-17
-21
-9
6
9
19
3
-25
0
5
4
10
40
-37
-64
42
3
-15
55
-11
-21
-42
14
-2
4
-1
-20
-29
6
37
-33
-1
6
-34
14
23
-20
-4
17
0
-41
-13
-19
-5
-29
8
-9
4
-10
-5
3
8
5
-5
42
-27
-15
-20
3
-10
-42
28
-29
-5
15
-11
-7
0
-5
5
-16
-2
-9
0
-18
-32
16
-36
-31
15
7
25
4
20
29
8
37
-31
2
22
-2
-14
15
-4
6
-12
23
37
40
-19
-3
-5
-2
-5
21
11
-36
-6
39
1
-1
31
-27
8
-15
-22
-17
38
21
-1
15
-4
-6
-11
29
-24
-51
22
-32
12
-11
5
-12
-16
8
17
-23
-35
4
-2
22
-20
0
32
2
33
14
-14
22
3
43
36
-16
36
-9
18
-13
20
23
-26
51
8
29
-44
-27
-34
34
43
1
-10
10
-2
-21
-39
-40
11
-26
9
-14
-1
-38
5
26
-10
-28
18
20
-12
-30
-16
-10
-27
35
-28
10
-33
12
-20
32
29
-43
43
16
-14
-38
58
-25
-11
33
-19
-22
-13
1
39
-31
-13
4
-14
15
1
-9
11
-6
1
46
-23
29
11
-66
-1
17
-42
33
30
19
-32
-39
13
24
27
-14
-10
21
8
20
8
-39
-10
-5
-21
27
44
8
28
-5
14
-4
13
15
36
24
-28
-5
-26
3
2
0
-14
6
38
23
-2
19
13
36
-1
-17
56
-33
28
40
12
-29
3
7
-35
-16
7
-17
-20
-27
9
-15
-48
-39
22
12
13
2
8
31
-22
17
-56
38
24
4
-18
9
9
0
16
4
-37
27
-18
18
33
0
-28
-8
11
-7
20
-2
-13
-38
0
-20
22
-4
-5
-5
26
-40
0
-17
-8
-3
-13
30
28
-2
-10
18
39
11
-7
-1
-3
-4
14
8
-48
-3
57
34
13
10
-16
36
-34
-9
-10
7
-1
-38
-39
-23
-33
36
31
0
0
-16
-10
0
-21
12
-7
16
8
-27
35
-4
-13
-35
7
17
28
-7
-22
-15
-23
34
-12
-45
36
-65
-12
18
48
-1
19
8
-18
0
41
-13
19
-7
-13
-25
-6
-52
8
24
37
32
-17
-1
-38
0
-10
-18
36
-23
0
-8
-20
-11
-20
1
10
43
-10
-28
40
36
4
7
-30
14
2
-12
2
-18
-11
29
30
9
-19
40
20
11
-15
-16
21
-53
20
41
-27
41
-9
-44
12
56
1
-7
6
18
-11
6
0
22
11
39
-23
24
0
0
5
-12
4
1
-15
0
19
-25
-10
-18
-13
6
0
-6
36
38
1
-18
5
34
41
-81
1
27
-26
5
-5
1
-45
0
-18
4
-6
-2
31
-16
22
-29
45
46
19
29
-14
20
-10
18
-15
21
-28
-13
-9
-3
-45
-11
-10
16
-21
-21
0
-15
-29
20
-50
-9
4
-10
43
-39
-19
22
24
5
18
24
-51
50
-35
-17
36
-50
4
38
-24
-1
20
-27
-17
1
-8
5
-18
-4
27
-27
-36
11
25
-28
11
4
26
21
28
-43
23
-22
3
-27
-32
-22
-1
23
-7
-12
18
-38
-1
-19
18
-5
-18
12
15
-21
-32
7
21
29
33
14
18
50
-41
13
19
27
-22
49
21
34
-11
5
-10
-27
-12
-27
9
-41
21
17
-25
9
0
38
-3
4
27
34
-4
62
-5
20
-31
-25
-29
23
-5
-9
-1
13
17
9
-23
25
-21
22
-28
23
-16
-11
1
28
-38
17
-10
-46
10
6
65
-41
-18
18
53
26
-13
48
26
-1
9
-43
-22
6
-33
28
57
41
-19
38
25
17
-28
-77
15
-26
-12
-5
40
20
-7
0
20
33
-71
21
-19
-18
-6
-7
-17
-19
-13
-51
20
-14
-4
-32
3
-39
23
-40
1
6
12
38
-5
-29
27
15
-9
-18
-8
1
-16
-5
5
-42
-18
32
-38
-13
0
7
13
-35
13
0
31
34
6
21
18
-1
-30
4
-18
-4
46
-20
-12
27
8
25
1
-6
-18
4
-40
-23
-6
4
-31
29
-1
12
-47
-6
-16
31
-28
5
-3
12
-19
-15
33
46
-1
13
11
-1
-4
-15
1
18
19
39
-2
6
-2
-61
-6
30
-4
-28
32
-17
-19
-27
22
6
-29
-1
9
-50
-19
1
1
3
30
6
-34
8
9
-30
-33
-42
31
8
-35
36
-5
35
14
-21
29
-24
-45
-13
4
-38
-31
0
27
-26
13
-19
-22
7
-42
28
21
20
-3
23
31
10
32
8
23
-3
22
52
17
-7
-26
-47
-15
-11
-29
42
-16
-19
9
65
2
-21
-3
-4
-22
10
56
-15
-31
-36
0
2
-11
-17
-44
10
23
-22
-8
-39
11
42
15
3
-16
-16
19
33
16
-16
18
4
3
0
35
-18
3
11
23
15
2
-3
-90
7
-14
27
-4
-13
23
34
-5
15
30
36
9
-17
-21
6
28
-7
-30
-7
1
43
-45
27
4
-52
-14
-9
22
1
23
-23
-19
-8
0
31
17
12
4
-38
25
37
17
-23
3
45
-31
36
-27
0
-22
-13
7
0
21
21
15
-47
23
15
-7
40
-28
34
13
-31
-37
-34
-23
-3
-6
7
-10
-6
-15
-22
6
-34
35
2
-42
49
-66
-34
20
-24
21
-27
-33
-40
53
-14
-48
-9
24
-10
80
-21
-10
-67
-15
16
37
-33
24
-19
34
-4
-4
3
-40
-48
40
16
51
21
8
9
26
-13
-27
-11
2
17
49
-8
-50
33
-32
45
-22
10
-3
52
41
-12
-3
-18
32
1
-4
23
-29
15
-8
4
-36
4
31
-14
41
-24
-36
-18
-30
1
-8
22
-43
10
8
-28
-30
11
21
9
-45
28
21
10
1
-17
-15
-21
-40
12
40
-3
29
19
38
18
-57
-16
4
-38
18
-20
44
0
-8
15
7
-3
4
-10
16
-50
32
9
27
2
-27
17
19
10
-40
17
-36
26
-13
-17
-11
1
-9
-14
-54
-4
19
0
-1
20
-10
-18
15
20
-20
-23
-5
-6
-27
-1
-40
19
-46
23
31
57
-17
30
13
-4
-9
-14
-62
33
-16
12
34
-24
15
19
7
-7
-33
25
17
-43
-8
19
36
-36
-2
26
20
-11
10
11
-24
24
33
-39
19
-10
-21
-11
10
42
-5
0
-24
26
42
-21
8
7
26
-16
-7
-15
-21
13
-29
-1
-10
-7
-9
-28
9
-17
4
1
52
23
-11
7
16
0
11
-34
15
-28
19
-11
32
-3
-24
-9
37
-35
-47
17
-42
13
1
0
-17
46
0
5
-43
-27
1
69
2
21
28
-9
-9
1
-6
-41
-13
10
14
-40
62
-21
25
-8
12
15
-42
-12
-21
-1
7
-7
-40
-16
16
14
-1
31
-13
8
3
7
-6
-20
-15
-8
26
34
-25
10
-48
8
18
9
10
1
-46
23
-61
30
-36
1
-47
-34
-20
8
27
38
-1
21
53
21
-17
45
-36
-45
37
-19
41
-5
5
26
22
-16
-2
-1
47
-22
4
-6
-29
10
-5
-33
-8
13
52
-60
-2
22
-6
-16
21
-30
26
21
-21
1
12
29
-28
-49
-14
6
47
-29
11
25
33
7
-1
35
2
-12
-10
25
45
-42
-13
-24
12
-5
-27
23
-12
-14
1
-14
-61
19
-20
29
20
12
22
12
18
44
28
39
-2
-19
5
-38
50
-30
-12
9
24
2
32
-4
-19
-40
0
-71
31
13
-52
33
41
29
-15
4
-54
-2
26
-19
-7
44
39
-19
16
37
-36
-35
-31
-20
6
-34
-49
2
14
-20
36
-1
21
57
18
-14
-4
-53
1
35
-4
23
-8
9
-20
-4
-1
64
5
21
-17
-20
-24
12
12
-31
0
25
-55
-14
-47
34
-8
27
-41
20
-19
-16
-28
-49
-48
-14
-10
78
14
21
0
-51
-31
-15
34
25
-46
43
-10
23
3
-16
-27
-5
-9
17
37
-14
32
69
33
10
9
10
-28
-8
13
-56
-57
25
16
52
0
-50
-12
5
4
-15
-12
24
-10
24
43
1
-10
8
-24
14
53
-36
16
-57
21
-2
-14
17
-6
-25
-8
-21
11
30
16
2
20
-44
-17
2
25
7
44
-14
-41
-40
16
-6
53
22
-21
2
9
50
0
15
-35
-25
-34
27
-11
8
-14
24
33
-19
-21
-30
-16
-19
27
-2
17
-57
31
-37
-1
3
-3
-37
-6
-38
8
-2
2
-30
-73
-29
-51
24
18
36
2
-1
10
18
25
-7
17
58
31
-20
34
-3
15
-37
7
50
31
21
48
8
16
-17
-17
-19
-21
2
3
-22
21
-13
-13
-27
8
-38
-29
2
-15
41
19
-8
-27
45
7
25
-8
3
-8
0
48
-8
42
-26
-10
-16
-24
14
-40
-9
30
-46
-23
-9
-11
17
-1
-17
-21
-29
0
-35
24
-40
-44
28
-9
16
-49
13
18
-28
-42
82
22
46
-12
-32
-14
23
-27
-19
-6
-65
-27
-13
-6
-16
-13
-22
24
-23
-3
-3
21
0
35
10
9
-7
9
-50
24
-53
7
-6
25
-43
10
29
12
13
32
-59
-40
11
6
0
49
35
35
28
1
3
-37
4
-68
-8
-35
21
-32
-23
-44
-17
-3
18
-8
-15
-13
3
30
-11
5
20
39
59
10
-6
-8
-36
-5
4
-22
-36
8
18
-14
-15
17
-16
-51
31
15
15
-34
14
-16
15
3
-21
3
46
-13
5
-42
-14
0
-6
-20
-3
3
-23
-27
44
26
19
-39
9
40
-20
21
-15
-23
19
19
-13
-14
20
20
-19
-2
38
24
36
6
26
40
42
-17
27
13
-13
9
-11
-8
-40
11
-25
2
24
-9
23
7
28
-1
-1
-59
29
19
0
13
6
-50
-44
37
23
35
31
-47
35
8
-63
62
12
13
10
31
3
-8
-23
1
25
54
-21
2
20
-19
13
75
10
31
15
39
-33
3
-88
-84
-1
41
-20
7
-27
1
-12
-15
-15
34
0
-29
-6
16
-33
38
-33
22
-3
20
7
-4
-32
7
-79
-6
35
49
45
-4
-33
37
-8
67
-33
0
-17
-32
-7
-17
9
7
-23
68
56
5
63
14
43
0
13
-11
-37
-29
9
-15
-40
-51
22
4
-14
-52
39
-2
-5
-54
-7
20
19
-43
45
48
-14
5
-39
2
-29
47
4
18
-11
-9
-4
30
-13
6
-37
28
8
-25
2
-14
15
3
28
-13
8
-12
23
45
-9
-1
-30
-13
-25
-6
36
15
-31
0
43
-18
-2
5
-18
-3
-13
27
-19
-26
-35
15
13
19
-40
-20
8
13
7
7
28
-25
10
7
0
26
29
-7
0
23
21
-30
-12
23
10
-7
21
14
-32
40
32
-25
-27
6
0
-37
-3
-21
11
19
10
-20
-24
7
13
0
11
-12
-14
7
-11
-21
15
41
-41
-26
-9
-1
-4
-45
-33
-39
3
-14
15
-29
-31
39
7
-3
-26
-17
-5
11
-23
-35
-31
-5
24
26
26
40
5
19
25
-32
20
-1
-22
-13
16
4
-39
-1
-20
10
13
-44
43
-12
-2
-50
-14
-18
25
-11
-8
33
-34
11
-5
-32
25
-31
25
3
10
-37
-8
-41
6
30
-58
4
-5
2
30
0
-42
15
0
33
-47
-2
1
48
-28
0
-30
-15
-23
21
9
-5
-20
23
-12
21
11
2
-25
-18
-37
-29
-16
38
15
20
1
27
4
-9
1
-22
31
-24
-17
22
-17
-7
-11
22
11
-3
28
-11
16
30
20
2
-8
9
62
30
13
-36
31
-38
31
28
0
-7
-14
24
16
32
61
49
-47
50
-28
9
-2
21
36
12
50
-51
-43
29
-4
15
-40
16
-19
-20
-11
32
21
-31
-8
-4
15
-18
4
-65
-23
21
-19
30
-8
-46
-16
35
-9
-35
34
-29
51
0
3
10
-15
-18
-23
13
-12
18
-11
-6
26
10
16
-45
58
-7
-24
-11
16
-18
6
28
-16
8
16
60
-44
14
43
5
-53
13
-17
-69
4
2
15
-20
36
49
-14
15
32
-38
15
-24
-12
-27
-48
-44
-8
-13
22
63
23
-40
-6
38
10
-32
-12
13
47
12
11
29
27
-29
-47
15
-10
-16
-11
-43
49
29
67
-1
-26
-3
-1
20
30
-12
44
-27
8
2
-6
-18
-30
-8
-19
12
-2
-1
3
-39
-25
60
39
-24
-21
-11
35
-22
-17
2
37
-10
9
34
-2
-4
0
30
2
-10
-10
-36
-17
44
-10
15
0
-14
-13
4
-8
0
32
21
12
14
43
-9
-2
-23
-20
31
26
15
23
9
-6
0
3
35
13
21
19
-26
0
-3
17
-1
-12
22
30
-8
2
11
34
30
12
10
-25
10
-4
29
-49
4
2
4
30
-1
17
50
13
8
-37
26
29
64
14
7
-30
-15
20
-30
-23
5
-44
18
4
1
-11
40
-20
0
-18
-9
27
16
-34
-9
-18
-23
-33
-26
41
12
37
9
9
-33
-25
-26
-18
-28
0
28
-41
-24
-17
20
-9
-24
13
-8
-35
14
-35
5
27
39
18
50
6
-4
0
8
17
43
46
-35
26
16
14
3
5
41
-4
-9
7
-11
-21
-21
29
20
7
-9
24
-3
-35
-15
28
-41
-22
-4
9
10
-12
-35
-16
42
6
13
12
-10
-21
43
5
-13
3
24
13
5
-38
23
26
-29
21
0
6
5
-3
-17
-21
14
36
19
-40
0
46
-16
-45
20
-24
4
-11
-1
13
30
-2
0
27
-18
-7
-59
23
-14
-11
8
8
46
-16
-53
32
5
-20
-41
50
-3
-6
0
-1
-9
-30
-2
-32
26
-1
25
34
2
-13
-3
4
20
7
-2
-5
-18
-20
-25
27
17
-19
24
-27
-8
-1
9
-5
-1
4
-14
11
-6
1
-1
0
1
-46
3
-1
0
0
-20
-41
-28
39
-4
-10
-44
-27
-36
-37
12
4
3
13
-4
-25
36
41
-26
-9
6
-11
16
-21
0
14
3
45
39
-14
-7
5
6
-18
-20
0
-44
-47
-3
0
3
11
2
-1
-26
34
-12
-45
0
-1
35
-21
3
12
37
-5
-38
31
-50
43
33
-26
-31
21
0
33
-14
-7
-34
-10
0
0
-19
1
31
38
-15
30
-15
1
3
-1
4
18
-28
1
12
13
14
14
0
21
-26
-11
-5
-41
-27
34
15
60
-8
-11
3
19
20
42
6
-13
-45
6
1
0
24
-18
-14
1
9
27
3
-22
35
39
-30
-7
-56
22
12
-49
-31
-27
18
26
-19
18
-46
43
-19
9
3
14
-36
-8
48
-38
19
15
17
30
11
-17
20
8
3
-10
-19
26
13
-21
32
24
13
-20
-7
21
-2
-8
16
-12
-24
-25
-2
-19
-40
-9
24
24
15
19
27
-33
-27
4
10
-19
59
-26
2
6
13
48
0
-3
-1
18
9
-5
-21
-47
0
16
53
19
37
5
50
46
27
-16
-4
-8
-40
40
-3
17
-25
31
6
20
7
-31
-24
-22
14
33
-18
32
-26
-29
-18
5
-4
16
-54
-4
15
-17
-1
-38
-7
-12
-29
0
-33
4
27
-54
11
15
24
39
30
-17
16
-1
69
6
-8
-11
-21
-26
10
26
-1
6
32
24
-14
1
1
44
-12
0
6
-4
-25
-13
3
-61
-4
-15
26
-15
-6
-7
3
7
-8
8
18
40
4
23
28
-36
-2
6
3
-47
1
40
-5
-2
38
20
31
-34
-38
-42
10
2
38
38
5
12
33
-51
-16
-5
42
22
50
-21
-8
0
-23
45
37
6
-34
20
11
-6
26
-31
-29
66
-11
-22
-22
-20
-21
10
-4
4
13
4
-5
43
5
43
29
26
20
0
-15
-29
30
15
28
-22
13
-21
0
-14
7
-37
-6
18
-45
-20
6
41
-40
-40
-38
-8
12
-40
-9
-21
-8
13
-5
-7
5
29
20
26
-4
-55
-53
-31
-5
0
14
-22
8
-30
-12
-6
-2
19
-10
-15
-43
-37
14
2
16
25
18
-30
28
15
10
51
-19
1
27
-6
0
-23
-20
-26
-12
33
25
-12
-13
36
24
2
-7
27
-40
-2
34
50
-52
5
13
-3
-8
-19
13
40
5
-9
14
0
19
36
9
0
-35
6
32
11
0
-9
-32
29
-9
10
14
35
26
23
-2
-45
10
-28
-17
3
-14
-7
15
8
51
-25
-23
21
-28
-44
18
-27
3
37
4
44
30
1
7
26
-16
-18
0
22
-5
45
-40
-6
18
12
-3
-3
1
-7
-12
10
-14
-41
32
-19
-1
21
-10
-1
-2
18
18
-60
14
-16
32
60
6
15
-22
7
29
-15
11
38
-46
-71
20
1
-8
9
4
-16
-13
-30
-48
24
9
-4
-7
-42
10
-18
-37
-13
-52
26
10
-1
-20
23
10
-31
2
-9
16
-23
-4
-35
-26
-31
10
-6
11
-2
-23
0
-17
0
-23
-12
0
44
9
15
15
23
8
24
14
28
9
6
23
22
-7
1
-28
41
-15
5
4
-16
-26
-17
-25
17
0
-2
15
-35
-15
29
-47
1
-75
-13
13
-16
9
40
2
-10
-2
-17
-34
2
-40
-15
28
-36
-1
-25
31
-1
14
-26
15
-7
9
-8
-17
-31
13
6
-7
2
-23
12
-12
-37
24
-7
-22
-17
-28
-3
-14
31
24
0
56
-4
27
-27
43
-19
-44
3
59
49
26
5
29
0
-20
-20
-30
38
36
19
4
5
15
8
13
1
2
3
-13
64
-29
-3
-15
16
46
12
-10
-21
7
-22
3
-32
-20
-10
-21
42
-31
-35
33
-14
-49
11
0
-48
-44
-12
26
-14
1
-9
3
-2
67
-24
-3
34
16
-19
-18
42
5
21
-32
1
67
-38
-28
0
72
7
0
41
40
-18
-24
0
18
11
-36
-1
50
-12
-51
-41
0
34
15
49
5
7
44
24
-14
44
5
3
44
7
-30
36
-24
0
13
32
5
-14
34
8
-1
27
-42
-59
-23
-1
-24
39
37
18
-2
-4
13
41
20
-21
14
6
-3
34
12
4
9
3
-30
2
-24
-22
19
-9
3
23
30
-55
13
-7
-17
0
-17
2
-17
-45
36
1
37
-17
7
43
5
21
-52
-6
37
-1
14
-9
1
-21
11
27
-21
13
12
-26
-6
-5
-1
15
-19
-61
-27
-42
-35
33
17
-2
-19
38
12
27
11
0
-18
3
34
25
-7
12
11
0
-8
-5
15
12
14
2
-10
19
1
4
11
26
11
-33
38
6
23
29
59
0
-31
-45
9
31
15
46
-27
-9
8
25
17
-15
-22
-9
-24
47
17
-8
38
43
-22
-20
61
5
0
0
-1
18
-18
13
-12
-4
22
-48
8
47
1
38
9
10
24
-22
20
-35
51
2
-4
36
-49
3
-8
-10
-8
3
-20
8
-26
-16
6
33
13
10
-16
-3
-4
9
30
19
9
-16
-2
-21
12
5
-6
57
-9
11
-17
28
-7
-15
-21
-20
-9
-46
-35
42
-7
-59
-18
-27
29
9
-32
-23
23
8
-16
38
46
-17
5
-48
39
-38
47
-22
34
15
-24
13
-15
-37
11
-2
35
-37
-12
-15
-15
15
17
-20
28
-2
-4
0
29
-32
15
-46
41
-18
-35
43
-14
-38
-23
-8
-5
-17
-23
-14
41
-17
26
-8
-44
7
-35
54
-40
39
17
-2
17
-13
-25
-9
-6
-37
20
-44
-9
0
-11
-52
40
23
12
28
17
13
23
5
-23
1
41
29
2
-17
0
-10
-22
-19
-23
-12
11
22
21
22
33
19
16
26
-23
22
11
6
11
29
13
6
21
53
18
-1
-11
3
20
6
0
-31
-17
-55
-29
-5
-9
-21
-10
-12
-36
31
-23
29
15
-7
-16
-12
18
9
-9
-37
-20
18
6
-10
-28
-3
19
-22
10
-39
7
51
-23
-20
-20
26
16
-6
15
9
43
-39
-9
41
9
13
48
1
35
-10
19
-22
-1
-4
-11
-8
-2
-16
40
-31
5
-15
1
39
4
-15
-39
51
-2
-41
14
15
-11
23
-2
-52
11
-62
20
19
33
22
15
-29
9
31
-6
-3
-8
49
-10
27
12
-12
1
-9
-15
-15
9
-18
7
-15
22
-46
27
28
6
-12
-43
-16
-29
23
21
23
-8
-57
-9
-10
-20
48
-29
44
36
-44
14
12
-14
4
43
1
28
-35
51
-44
20
-10
-51
-62
-8
-7
-37
-6
28
-38
-21
13
-48
33
1
13
-2
-26
-17
6
0
7
20
24
28
18
2
-2
1
-33
2
-8
11
18
6
4
17
5
62
23
-46
0
53
-7
-31
19
31
21
-22
-8
7
0
11
9
40
16
-14
-2
-4
8
-38
33
34
-8
9
-16
-1
5
22
10
-20
-14
-1
10
-11
-29
-32
37
-7
6
-22
-39
30
33
25
-11
10
13
-22
5
-18
39
21
17
-16
1
-21
-5
-46
-23
-5
-2
8
43
-20
-11
0
-39
-15
-21
-10
-23
-31
20
-41
39
-3
20
20
10
-43
-32
24
4
0
7
-26
-35
-20
-40
-8
11
7
-9
30
0
6
15
26
35
0
21
14
-28
16
-9
23
-15
31
11
-20
24
5
-12
10
7
-13
-15
22
-14
21
-46
-10
8
3
29
5
-15
-28
6
-7
-20
21
-7
22
30
11
18
3
-4
12
21
19
-15
-11
33
15
-37
-5
6
-8
-9
16
15
-43
-21
-15
-33
-2
38
-10
10
-12
8
5
-13
28
-33
45
-27
43
-7
-19
48
-36
23
-4
9
49
-28
-45
0
18
3
-23
-10
-8
27
-3
14
-23
-41
-30
51
36
9
-15
29
-33
32
32
21
-5
-22
-15
17
-2
37
-5
-12
28
23
4
3
17
0
0
9
-28
-28
24
13
22
17
-11
-21
1
29
34
-10
-4
3
-6
-12
-26
-3
-28
-16
-61
12
30
21
-26
10
-26
-2
14
-4
0
-12
-70
-30
-8
25
-7
0
34
32
48
54
-17
32
22
19
-46
-30
29
-32
8
7
10
-16
-5
-40
-40
-2
20
-30
-36
48
0
-19
-7
21
0
16
59
-21
65
-18
4
-4
24
40
-41
-29
-43
-2
14
8
-39
-21
33
-32
-10
28
-40
12
-24
26
-15
-20
4
-21
8
-16
-28
45
-21
